    0.395033793702633193E+04    0.268724094812868771E+04    0.742885657745972483E+00   -0.323009011894415266E+03
    0.314747132186458839E+04    0.781049355305279187E+04    0.103287366495782207E+01   -0.320139191101435188E+03
    0.177522554072586377E+04    0.926877321158637278E+04    0.137876288289318971E+01   -0.318788481825167139E+03
    0.267521360669955266E+04    0.887399185307408334E+04    0.850672694616313674E+00   -0.318567060774785205E+03
    0.280868805045195722E+04    0.503545530547985072E+04    0.151098123808877216E+01   -0.318520782089076022E+03
    0.173897088717409065E+04    0.614899689113683326E+04    0.171552003130176312E+01   -0.318056878500630376E+03
    0.336687349979887449E+04    0.458619053479330432E+04    0.978511188582745661E+00   -0.317972376807622140E+03
    0.204687008359689662E+04    0.781105560874597359E+04    0.224751010927665140E+00   -0.317919636169462024E+03
    0.401626424441948416E+03    0.128343946071036007E+05    0.462167222935895017E+00   -0.317600898887323638E+03
    0.307920134714156438E+04    0.782458318829615928E+04    0.687361797684071907E+00   -0.317399002798031688E+03
    0.291739949204829600E+04    0.373339757842886866E+04    0.586260529570939104E+00   -0.317359963183494926E+03
    0.226409179150353839E+04    0.820623470641556560E+04    0.117221374001052170E+01   -0.317340426905133256E+03
    0.176399543049163935E+04    0.455183175102167024E+04    0.112145846876801425E+01   -0.317337794596907202E+03
    0.308544650456380487E+04    0.500233997615670978E+04    0.109342496741259398E+01   -0.317318998044417981E+03
    0.508812877289824314E+03    0.119250533212487680E+05    0.860381481483088351E+00   -0.317150162781136032E+03
    0.266459049773198785E+04    0.820989517928545138E+04    0.255142948580088624E+00   -0.317000009987134888E+03
    0.133188968394367998E+04    0.944226160104096562E+04    0.123198837752102319E+01   -0.316965849345588765E+03
    0.275263501873808855E+04    0.402407350759252586E+04    0.446089926488370037E+00   -0.316910634161703229E+03
    0.302816586660909115E+04    0.741705294679162944E+04    0.740185655643127549E+00   -0.316785231521704418E+03
    0.161695325500147169E+04    0.885483445417757139E+04    0.124602879412634460E+01   -0.316741501219899476E+03
    0.101017366982923863E+04    0.927035401176901360E+04    0.327780238278874869E+00   -0.316734526888383300E+03
    0.284738493221014187E+04    0.469981062414024836E+04    0.322326783879768430E+00   -0.316706970019516802E+03
    0.143069988386643422E+04    0.710914325435527371E+04    0.150011620215142982E+01   -0.316698562616845891E+03
    0.210668905265708190E+04    0.830590485806326251E+04    0.111644933172614147E+01   -0.316545334138068256E+03
    0.931776075872642764E+03    0.577865612642505675E+04    0.992189615945677783E+00   -0.316458975583053302E+03
    0.239965390286325010E+04    0.596698399033336136E+04    0.132173054013869606E+01   -0.316446574542789904E+03
    0.410294287912890752E+03    0.825694506124001236E+04    0.114798293860702971E+01   -0.316319619570282214E+03
    0.816859273491520867E+03    0.114189285904694243E+05    0.796149451482503046E+00   -0.316115678813703482E+03
    0.248696129259448708E+04    0.410325753275877651E+04    0.641318831377844178E+00   -0.316104298743284858E+03
    0.463680846047914542E+03    0.865537536929832822E+04    0.116542307304542181E+01   -0.316089162439201345E+03
    0.592973888342136888E+03    0.661410222093234461E+04    0.600732488528038067E+00   -0.316029033525906584E+03
    0.145289333096560017E+04    0.970172181157420891E+04    0.993377178836838182E+00   -0.315987897193725246E+03
    0.253498356861296315E+04    0.639878323915347119E+04    0.114518688181052153E+01   -0.315966379033361250E+03
    0.145190658002518717E+04    0.110103588259384869E+05    0.630966201216445310E+00   -0.315951168038673131E+03
    0.122952069220810881E+04    0.521292634369590269E+04    0.621896009560113927E+00   -0.315945653461177244E+03
    0.221894424365382974E+04    0.595103154774400264E+04    0.291468448536260250E+00   -0.315925258352532921E+03
    0.584184215005038141E+03    0.911134244218858839E+04    0.117110243380240209E+01   -0.315886263267584866E+03
    0.165005746896956202E+04    0.627040624518020741E+04    0.133982134770402173E+01   -0.315833402599775752E+03
    0.310728810966413812E+04    0.490362291102731888E+04    0.738742297014241323E+00   -0.315829421346922629E+03
    0.285187595526121186E+04    0.600126531059795707E+04    0.954072332306709181E+00   -0.315795627615777164E+03
    0.533213827174297876E+03    0.714953887612266317E+04    0.100258980381200136E+01   -0.315753261046166642E+03
    0.114244332907405942E+04    0.114491159220462287E+05    0.609223016758522418E+00   -0.315742673533934294E+03
    0.939426748522187154E+03    0.578514443370115623E+04    0.638227450527194318E+00   -0.315728850221929520E+03
    0.220901895473921923E+04    0.706705150247814254E+04    0.118935493019886618E+01   -0.315722683124049524E+03
    0.195179123369364311E+04    0.569540315828613075E+04    0.125930713383864146E+01   -0.315712506009662945E+03
    0.134645732008398477E+04    0.112840984585312017E+05    0.482329823423406356E+00   -0.315702908026407556E+03
    0.949938370312749271E+03    0.112485876331761319E+05    0.747813482435175203E+00   -0.315688174886225738E+03
    0.132787330843879840E+04    0.112669580409835999E+05    0.467273077037878293E+00   -0.315663313300466655E+03
    0.214876082900339998E+04    0.579308897623311441E+04    0.123148997238980362E+01   -0.315594646148854679E+03
    0.222391598629034843E+04    0.600756171000325867E+04    0.122528149263990804E+01   -0.315585584855100592E+03
    0.172771134519974726E+04    0.830992830421027065E+04    0.115281575216747600E+01   -0.315585267991571186E+03
    0.212509384515471402E+04    0.892890286623491920E+04    0.804946673147118652E+00   -0.315561235811717324E+03
    0.613964899291150573E+03    0.810821279309163674E+04    0.115079078589896167E+01   -0.315557883716820356E+03
    0.476694844907165418E+03    0.100085355697558734E+05    0.103104799350214771E+01   -0.315495049878926181E+03
    0.283805703427422213E+04    0.487246939430571456E+04    0.401539377217228155E+00   -0.315455637211675480E+03
    0.980385557980753447E+03    0.773622690614638213E+04    0.124665433300833994E+01   -0.315454217811156070E+03
    0.198790554865697027E+04    0.539379292107269794E+04    0.114589279631642027E+01   -0.315380408005523861E+03
    0.567709131207886003E+03    0.110764955182717058E+05    0.843696267279368639E+00   -0.315378791112999977E+03
    0.638052515004771635E+03    0.652487984918636812E+04    0.751374494027650663E+00   -0.315330623178842700E+03
    0.291724400726242584E+04    0.717290917027234900E+04    0.634824144621801700E+00   -0.315288478925054392E+03
    0.969203325523798753E+03    0.108145066444281820E+05    0.804289489209383590E+00   -0.315287249529910412E+03
    0.216381524206436598E+04    0.709653421891428843E+04    0.113329367847517659E+01   -0.315284446773704587E+03
    0.151405496342080892E+04    0.556719702779776253E+04    0.108766437018213979E+01   -0.315280662479712191E+03
    0.275030016656195403E+04    0.450974202377899746E+04    0.626634942374996617E+00   -0.315274774356742398E+03
    0.985684004630341860E+03    0.115156884136299559E+05    0.550522028629767513E+00   -0.315273898946564202E+03
    0.764517258223196450E+03    0.823875427554691669E+04    0.116828648238317112E+01   -0.315246051717491923E+03
    0.172477976757258739E+04    0.613298272100551185E+04    0.123343481773091712E+01   -0.315224650078574484E+03
    0.269490244183048162E+04    0.459292069078713303E+04    0.725751046995770421E+00   -0.315213181245122371E+03
    0.127813497054969343E+04    0.738582579406031800E+04    0.125574713232507573E+01   -0.315164342573141880E+03
    0.310191717070185769E+04    0.609500255779763029E+04    0.402941383383924434E+00   -0.315143948825007328E+03
    0.229521096893831373E+04    0.905155474508699444E+04    0.593508079727395832E+00   -0.315114000868189521E+03
    0.399665655474167991E+02    0.997541250898899852E+04    0.562793930530432474E+00   -0.315104725158663484E+03
    0.160169940304632019E+04    0.501918922875780299E+04    0.578258737775746878E+00   -0.315104069295029319E+03
    0.313649316705146794E+04    0.587147951127276247E+04    0.454409043211762897E+00   -0.315090941849894421E+03
    0.227108818236448178E+04    0.559548747838379859E+04    0.109484073560045592E+01   -0.315087123158422685E+03
    0.201179522332457026E+02    0.114275345829829967E+05    0.700387687516161317E+00   -0.315056659673482670E+03
    0.169747622560897116E+04    0.944559573727725547E+04    0.833019647150221143E+00   -0.315056276378250573E+03
    0.135168344973689295E+04    0.851250392424843267E+04    0.114522496666599927E+01   -0.315042637467432883E+03
    0.710352039984377484E+03    0.111133218652319320E+05    0.767588748368442486E+00   -0.315030326991023117E+03
    0.196395338083070237E+04    0.773128794911995283E+04    0.107846824287612120E+01   -0.315002897031411806E+03
    0.142619396251082730E+04    0.105944038557970598E+05    0.420268806002092266E+00   -0.315001720425106271E+03
    0.254164634979976245E+04    0.578607826207813741E+04    0.988100589608652879E+00   -0.314970605137063956E+03
    0.266943979426590613E+04    0.685181648109701564E+04    0.831051683098398386E+00   -0.314966409104290847E+03
    0.127967916903708760E+04    0.653891438341100638E+04    0.116174813023741219E+01   -0.314890285423626608E+03
    0.256618066579429637E+03    0.796132283350009220E+04    0.741537043280083852E+00   -0.314864931189259607E+03
    0.103087820936659523E+04    0.660178096472351626E+04    0.472175341110156743E+00   -0.314858527406073392E+03
    0.945938950942559018E+03    0.112180634044027902E+05    0.634026854494486813E+00   -0.314857396590621420E+03
    0.253117688456376118E+04    0.835674317529714790E+04    0.569114374662695210E+00   -0.314852045389130581E+03
    0.273124410962622460E+04    0.622546992002597290E+04    0.843461436212316173E+00   -0.314844642561685077E+03
    0.113475130491483628E+04    0.107485956707229525E+05    0.706091957255378100E+00   -0.314841454709082257E+03
    0.245910756289182791E+04    0.821279756754016853E+04    0.667685051875733904E+00   -0.314829151200108015E+03
    0.152548766515403349E+04    0.683749431561612528E+04    0.121403073327757860E+01   -0.314826422343703939E+03
    0.142639460450512502E+04    0.844219231793623112E+04    0.110993643725560709E+01   -0.314820046756381430E+03
    0.978184804342754660E+03    0.925269603750015995E+04    0.105319430683178239E+01   -0.314796318407192416E+03
    0.833312507471970434E+03    0.638044319335343152E+04    0.861290682366690818E+00   -0.314793136175672430E+03
    0.212774424980192089E+04    0.935753160024288445E+04    0.557872599121722268E+00   -0.314790695187018400E+03
    0.678324270522582196E+03    0.691156049302426072E+04    0.915140531480655772E+00   -0.314790253269386767E+03
    0.284347810757850857E+04    0.498792519738755436E+04    0.500174734891511541E+00   -0.314775355482251655E+03
    0.170317925021452038E+04    0.494474011082005927E+04    0.658926627684080723E+00   -0.314765297823867854E+03
    0.109034271589864693E+04    0.110982457897217355E+05    0.506222441344621688E+00   -0.314744660213549139E+03
    0.132391508127384827E+04    0.103878372681874225E+05    0.714278502905516866E+00   -0.314739116042655667E+03
    0.625025063463869515E+03    0.111759087040054674E+05    0.728946109433110001E+00   -0.314738426078743998E+03
    0.218281450187084511E+04    0.496062274910586166E+04    0.894023304577359901E+00   -0.314734487420285177E+03
    0.860857995789117240E+03    0.769192245506062136E+04    0.112017972980047498E+01   -0.314733669168982715E+03
    0.201051737309340183E+04    0.929865079740368128E+04    0.655236084257745266E+00   -0.314723817213903601E+03
    0.271515557131800324E+04    0.620567368014966087E+04    0.829901921999806946E+00   -0.314707587855890779E+03
    0.266282521760250665E+04    0.557026920001730923E+04    0.371384356137055505E+00   -0.314706565749797051E+03
    0.267345044371649874E+04    0.477287173088687177E+04    0.586455081625360308E+00   -0.314698852970417022E+03
    0.128266913404841972E+03    0.102171609250809070E+05    0.844600421987507621E+00   -0.314690721014574592E+03
    0.297119573423445127E+04    0.669128032171650830E+04    0.456098794760075255E+00   -0.314688213698149866E+03
    0.969677412449909752E+03    0.629585905778936831E+04    0.931299599790229582E+00   -0.314673787787772596E+03
    0.149950655533587087E+04    0.602159408162846466E+04    0.109839917887781446E+01   -0.314669113337330771E+03
    0.134917298611963520E+04    0.104903277054354894E+05    0.657563628869168748E+00   -0.314646772312061387E+03
    0.204818422407488060E+04    0.951135850960288008E+04    0.525677569816436208E+00   -0.314644251963209854E+03
    0.267285377610015303E+04    0.663207677321267693E+04    0.341034426744904196E+00   -0.314613937175664660E+03
    0.696762847769153723E+03    0.100541846619418502E+05    0.926662255462002760E+00   -0.314590999355756082E+03
    0.176339361304880708E+04    0.500846588497589255E+04    0.784974348701552582E+00   -0.314576766299382143E+03
    0.107833777425415133E+04    0.769444500980787507E+04    0.115001654369558781E+01   -0.314574737768240482E+03
    0.168874155705964722E+04    0.973790638556485101E+04    0.693426721312083383E+00   -0.314560462579302850E+03
    0.497472368482804143E+03    0.804775907248134808E+04    0.970375372474709508E+00   -0.314560363149029286E+03
    0.289120196391098125E+04    0.523562194843814177E+04    0.541072648435869663E+00   -0.314552900585308009E+03
    0.289843308373823447E+04    0.528063986252455015E+04    0.517738245829075017E+00   -0.314552060612521416E+03
    0.111974634490788640E+04    0.616756613342827950E+04    0.964955125197167862E+00   -0.314533712894495636E+03
    0.191266040010178608E+04    0.779790270270525616E+04    0.101609563185394736E+01   -0.314521138930911661E+03
    0.230475494138829481E+04    0.784129980861432887E+04    0.331875613836204897E+00   -0.314519393971999705E+03
    0.737062349351027592E+03    0.112526497596317586E+05    0.630180969610422359E+00   -0.314517708183841535E+03
    0.137660730224234703E+04    0.727079854320014510E+04    0.116995322773381982E+01   -0.314516165981718359E+03
    0.297314374951846230E+04    0.608243500675472842E+04    0.470833534018002431E+00   -0.314514913046570484E+03
    0.294494919707151848E+04    0.565039033863520399E+04    0.475481351912977246E+00   -0.314513489225511819E+03
    0.140943950708369766E+04    0.985631331989455612E+04    0.787055682004457968E+00   -0.314513277978695157E+03
    0.223952488123359853E+04    0.510636010079536300E+04    0.447383140067082075E+00   -0.314512859274643972E+03
    0.153811287194010379E+04    0.527896368230288226E+04    0.593189343426721916E+00   -0.314511967541285856E+03
    0.156779960665676640E+04    0.744449083681699631E+04    0.115242207658882445E+01   -0.314506887595171463E+03
    0.201104749637869259E+04    0.926685807840146117E+04    0.624131706246251694E+00   -0.314483773988607425E+03
    0.155411365891076025E+04    0.555880853041526188E+04    0.494262219130622016E+00   -0.314480370130049323E+03
    0.213012251601997559E+04    0.545269532335519034E+04    0.404313463668038109E+00   -0.314477568626069001E+03
    0.135573581275659717E+04    0.837878908077704546E+04    0.108199479863782222E+01   -0.314449047528472192E+03
    0.104163998509879866E+04    0.107455005151905880E+05    0.458301903202730121E+00   -0.314447665357044229E+03
    0.248765911625190256E+04    0.548734601537440358E+04    0.889364663851284543E+00   -0.314445425277159131E+03
    0.184867368442416341E+04    0.843211010868427365E+04    0.337170569208866788E+00   -0.314423962129881545E+03
    0.189265855055361641E+03    0.106382275800764492E+05    0.783415749453071353E+00   -0.314420115023417964E+03
    0.194798807784335281E+04    0.618871412819731449E+04    0.109456041613098654E+01   -0.314417190577142549E+03
    0.151041633573090189E+04    0.849530633062619199E+04    0.349594310424101551E+00   -0.314404593763668174E+03
    0.327041597538634718E+02    0.101695751685224277E+05    0.730646091792073515E+00   -0.314395211422744410E+03
    0.176139657337074084E+03    0.926181424411338958E+04    0.593903254449499651E+00   -0.314382616664369152E+03
    0.214287170279444899E+04    0.509335992267834354E+04    0.475999712436559974E+00   -0.314382167997420652E+03
    0.626931582884001159E+03    0.111526460475377462E+05    0.532124036082840868E+00   -0.314336930037628122E+03
    0.143615828945285716E+04    0.845704757551568218E+04    0.357089590623384689E+00   -0.314327404909284496E+03
    0.932221723468239816E+03    0.104613098894143077E+05    0.775820613698007144E+00   -0.314318385010182965E+03
    0.189396021810862908E+04    0.658415064360284396E+04    0.109762968192203481E+01   -0.314306803498676231E+03
    0.288706333311017215E+04    0.584302457320211033E+04    0.467428199519418996E+00   -0.314304213568493481E+03
    0.272560872623542764E+04    0.559853251193381766E+04    0.421332379166042603E+00   -0.314303947402744029E+03
    0.234950209811246032E+04    0.859974096759430540E+04    0.512921303895380376E+00   -0.314289225394325115E+03
    0.194973442069035832E+04    0.501805988066845111E+04    0.775324684880032811E+00   -0.314271090033425935E+03
    0.497751642238430122E+03    0.741679205730154536E+04    0.740664354516196499E+00   -0.314256424192424561E+03
    0.120542614992560243E+04    0.774764597138822319E+04    0.111848157364684186E+01   -0.314254963222165713E+03
    0.263517112015741577E+04    0.708675892377268065E+04    0.373763141615228445E+00   -0.314243195832106380E+03
    0.234143895514539690E+04    0.764794574107846893E+04    0.779776926660519232E+00   -0.314232903271856571E+03
    0.253580945451228354E+04    0.674429199955240074E+04    0.803809889206651085E+00   -0.314221972249423175E+03
    0.244546783673553728E+04    0.602882749954693463E+04    0.366361065661302721E+00   -0.314217774625331458E+03
    0.223629263780144947E+04    0.811503561558679485E+04    0.742772439350552705E+00   -0.314216021664808125E+03
    0.152885152222374654E+04    0.986769166492332261E+04    0.684151911757359454E+00   -0.314193209505274979E+03
    0.272521502587637178E+04    0.523385897177691641E+04    0.594122095729834321E+00   -0.314186382119128325E+03
    0.211666606559666207E+04    0.615652736463646033E+04    0.101772277511509013E+01   -0.314184437751599376E+03
    0.714157270262331053E+03    0.832464200392041312E+04    0.102260911426423862E+01   -0.314169574170122985E+03
    0.240556304504193531E+04    0.506893046958493596E+04    0.505389214353171523E+00   -0.314158842499294906E+03
    0.150625288388946387E+04    0.725649557924981309E+04    0.111348587711232772E+01   -0.314142688599423764E+03
    0.125746110053713892E+04    0.681429777495050166E+04    0.107673940097038456E+01   -0.314116444098872876E+03
    0.265229510192629596E+04    0.581560625555764454E+04    0.754055524153538048E+00   -0.314103563087396253E+03
    0.179452434231223879E+04    0.827096074426274026E+04    0.919345849816989635E+00   -0.314096121236246859E+03
    0.259159269156714481E+04    0.519383353567174800E+04    0.676846694783707625E+00   -0.314090500429984900E+03
    0.493548023795975212E+03    0.778467991358379459E+04    0.854435575709651118E+00   -0.314084766982860401E+03
    0.277946167474000276E+04    0.642255916955318116E+04    0.429114441780695410E+00   -0.314083659086690943E+03
    0.926452979498284776E+03    0.666164287002990750E+04    0.909380556438319387E+00   -0.314070662224146872E+03
    0.254124447085803604E+04    0.754254960474793734E+04    0.396027293045395024E+00   -0.314058565242264081E+03
    0.111647538326943663E+04    0.876483427539992226E+04    0.101128760884308733E+01   -0.314047437146935010E+03
    0.267918817960342813E+04    0.565783948230799706E+04    0.444821981102810682E+00   -0.314034281662906494E+03
    0.517445850457238521E+03    0.109008987017836916E+05    0.695100944506988450E+00   -0.314030037867840974E+03
    0.270014578644344647E+04    0.603255701759117528E+04    0.704133500286115543E+00   -0.314029496386770973E+03
    0.273030630032721410E+04    0.589791964628435471E+04    0.677411670950387346E+00   -0.314027867242181344E+03
    0.116591294448304325E+04    0.997014536448479885E+04    0.423055396089703273E+00   -0.314026032539136736E+03
    0.892551783810176858E+03    0.979646972888282471E+04    0.433452137258501735E+00   -0.314024727996628030E+03
    0.141906399348487275E+04    0.883733703254720240E+04    0.937241759275380226E+00   -0.314023337980450947E+03
    0.218122016446483804E+04    0.860796152334110047E+04    0.618102502258631059E+00   -0.314022039481907200E+03
    0.230743157811977972E+04    0.537717106973967930E+04    0.447044938600539676E+00   -0.314020863082971346E+03
    0.137853827863523816E+04    0.658672590666742963E+04    0.106053119053772837E+01   -0.314016741420544292E+03
    0.627810067670680155E+03    0.944556280754643194E+04    0.468164942066050527E+00   -0.314008858354454219E+03
    0.217770540922042119E+04    0.692662625854123507E+04    0.347284167105560759E+00   -0.314005666411754362E+03
    0.968020083522498794E+03    0.835589210940036901E+04    0.423219910659119680E+00   -0.314004467559918169E+03
    0.203789842177007972E+04    0.840096511303182342E+04    0.366636366776935674E+00   -0.313976533194097669E+03
    0.230783383435861606E+04    0.849223130564525309E+04    0.483465061822558717E+00   -0.313967342779056025E+03
    0.160165985152111966E+04    0.554968055725150407E+04    0.866073669067548235E+00   -0.313967216110350762E+03
    0.277415316846339374E+04    0.659035721729772831E+04    0.469506592773514919E+00   -0.313964741112903653E+03
    0.895441625465418383E+03    0.106576625812737948E+05    0.675503338258647057E+00   -0.313948200199309383E+03
    0.255630235659273922E+04    0.771195094818639609E+04    0.489082526318085131E+00   -0.313943637053239911E+03
    0.126430700839728320E+04    0.103652022564091494E+05    0.607914515142952916E+00   -0.313931013759180018E+03
    0.906906835198781096E+03    0.971715542083969740E+04    0.880195996231166067E+00   -0.313930029303788501E+03
    0.140648763584978315E+04    0.102235577039582404E+05    0.500977142836783074E+00   -0.313922212606146047E+03
    0.188673771816688986E+04    0.677127056030480435E+04    0.364049390624368030E+00   -0.313917396203653254E+03
    0.116762881780090061E+04    0.617003547438323403E+04    0.568794052567468289E+00   -0.313909562916595746E+03
    0.654973526861674486E+03    0.109158190245751794E+05    0.567550120340195030E+00   -0.313894653784199704E+03
    0.251350524228035101E+04    0.520350161688113894E+04    0.638447737103515989E+00   -0.313887871027010647E+03
    0.333595293524607598E+03    0.948543228701575208E+04    0.553065634621315749E+00   -0.313884365926949499E+03
    0.220848095807254322E+04    0.763243666306019077E+04    0.803757172489970029E+00   -0.313879670422649042E+03
    0.364617343081902732E+03    0.959188151778109932E+04    0.852942954431295641E+00   -0.313876708577271131E+03
    0.254790096576701353E+04    0.681728073419508473E+04    0.387280945935994880E+00   -0.313865649450846718E+03
    0.254790096576701353E+04    0.681728073419508473E+04    0.387280945935994880E+00   -0.313865649450846718E+03
    0.192701006554630658E+04    0.595987094374436856E+04    0.981762228685799987E+00   -0.313865452283978868E+03
    0.192701006554630658E+04    0.595987094374436856E+04    0.981762228685799987E+00   -0.313865452283978868E+03
    0.245942172376008921E+04    0.746188040173661375E+04    0.669831347411064648E+00   -0.313858034455830307E+03
    0.245942172376008921E+04    0.746188040173661375E+04    0.669831347411064648E+00   -0.313858034455830307E+03
    0.229917937520555324E+04    0.532500619530314816E+04    0.786987682060762306E+00   -0.313848085798848444E+03
    0.258581521343370105E+04    0.531264692083289719E+04    0.594578970663412698E+00   -0.313845364809512830E+03
    0.539225175897381632E+03    0.103544018752725806E+05    0.785078015116980832E+00   -0.313839749044565679E+03
    0.167803048678351206E+04    0.614172846615818708E+04    0.100787428510280752E+01   -0.313836371493928993E+03
    0.163248109003161653E+04    0.591051897274477233E+04    0.466277642808276660E+00   -0.313827345359752826E+03
    0.135066481277110302E+04    0.992989745637798842E+04    0.438943136761730357E+00   -0.313824247741513148E+03
    0.248474270562457514E+04    0.532006911573155867E+04    0.694197400609914639E+00   -0.313817290860506489E+03
    0.223890368636844823E+04    0.683688502602146491E+04    0.887430036587697479E+00   -0.313815198765322975E+03
    0.150798242866617124E+04    0.952545397768488147E+04    0.413291184942399692E+00   -0.313802117470241001E+03
    0.203220150264143012E+04    0.638151650136024818E+04    0.978983783129516727E+00   -0.313792671140446714E+03
    0.237243089418395812E+04    0.574575397361776413E+04    0.830545847506508728E+00   -0.313792516233378365E+03
    0.117193085492171440E+04    0.847060561367025002E+04    0.100460866509713953E+01   -0.313780402140491674E+03
    0.101532565844990143E+04    0.734641080326182873E+04    0.468353328199307195E+00   -0.313769004858601420E+03
    0.158815344431867038E+04    0.674891752490255203E+04    0.104910850554541413E+01   -0.313762873339685768E+03
    0.133309418113494166E+04    0.584031037382295835E+04    0.799796063429552340E+00   -0.313757254279614699E+03
    0.161703690047997179E+04    0.714218371575822766E+04    0.104461048531210654E+01   -0.313734471117878741E+03
    0.223162532300700559E+04    0.515365050057456847E+04    0.660548436217537338E+00   -0.313730123926180170E+03
    0.223162532300700559E+04    0.515365050057456847E+04    0.660548436217537338E+00   -0.313730123926180170E+03
    0.190947370255967667E+04    0.702693386849395392E+04    0.365661416580161436E+00   -0.313720772463800358E+03
    0.180482470489422894E+04    0.532924651232852193E+04    0.749656475062035477E+00   -0.313720367981847289E+03
    0.246003005098568883E+04    0.779863497515611652E+04    0.526889166700883815E+00   -0.313719759962886656E+03
    0.246003005098568883E+04    0.779863497515611652E+04    0.526889166700883815E+00   -0.313719759962886656E+03
    0.199135875833819432E+04    0.629479309791260766E+04    0.970872075888862263E+00   -0.313702778504889750E+03
    0.255028109201878664E+03    0.903750594063505196E+04    0.732253229279107409E+00   -0.313692796934243006E+03
    0.976751875978601220E+03    0.934400912580872136E+04    0.899895708211278955E+00   -0.313688213343271968E+03
    0.422850272322501155E+03    0.851355838276506074E+04    0.839194827295923540E+00   -0.313684131685509897E+03
    0.138115356128406302E+04    0.663090658228825669E+04    0.101422532026292345E+01   -0.313682021386193014E+03
    0.399414684596822383E+03    0.100461718665114367E+05    0.791779048601792823E+00   -0.313676192970065358E+03
    0.399414684596822383E+03    0.100461718665114367E+05    0.791779048601792823E+00   -0.313676192970065358E+03
    0.883203331481064652E+03    0.826806993859292197E+04    0.457008631678961774E+00   -0.313658245661351771E+03
    0.315157960926266867E+03    0.865377331878244149E+04    0.697661895172624336E+00   -0.313650050900106748E+03
    0.122033381090090256E+04    0.816525302126471070E+04    0.100968503712107349E+01   -0.313635099984044643E+03
    0.208323957283051186E+04    0.559540292666156438E+04    0.464221038790671447E+00   -0.313633194186898038E+03
    0.224971915021399991E+04    0.589610578055033875E+04    0.854977287459100288E+00   -0.313612561905505231E+03
    0.558804422654295763E+03    0.764762746583730132E+04    0.670054466293772300E+00   -0.313609829271910030E+03
    0.162585380683655967E+04    0.719500994230033666E+04    0.102247283657772181E+01   -0.313608491300164474E+03
    0.149850863005929591E+04    0.844175165413787181E+04    0.923653968008527726E+00   -0.313608004557154288E+03
    0.149850863005929591E+04    0.844175165413787181E+04    0.923653968008527726E+00   -0.313608004557154288E+03
    0.166790962582948919E+04    0.554967714103150774E+04    0.796755448020834089E+00   -0.313607699071547586E+03
    0.325333009999633077E+03    0.911343954700536960E+04    0.606972960665097205E+00   -0.313595652316230201E+03
    0.228401434562653139E+04    0.574496104056016975E+04    0.440684887110943668E+00   -0.313593196030811782E+03
    0.177638378651586095E+04    0.614727837701193130E+04    0.431183403293567302E+00   -0.313586797901553382E+03
    0.195557050499011234E+04    0.591956676906107350E+04    0.434684466522231916E+00   -0.313584735892661229E+03
    0.195557050499011234E+04    0.591956676906107350E+04    0.434684466522231916E+00   -0.313584735892661229E+03
    0.758052607810103154E+03    0.814378977778336775E+04    0.953567542874590890E+00   -0.313572815595432189E+03
    0.242369659478772917E+03    0.956827517323514439E+04    0.666650377494097945E+00   -0.313552966378782457E+03
    0.242369659478772917E+03    0.956827517323514439E+04    0.666650377494097945E+00   -0.313552966378782457E+03
    0.100630964643430332E+04    0.793301274709843983E+04    0.100157456729564509E+01   -0.313552546563604210E+03
    0.167197844671490407E+04    0.955419086776569384E+04    0.492058732352005535E+00   -0.313542981780382092E+03
    0.749999880755200593E+03    0.106262959037148703E+05    0.571093784986016706E+00   -0.313540986193447850E+03
    0.543410587330614021E+03    0.904275398160098302E+04    0.882801429588710884E+00   -0.313537781658740073E+03
    0.134105721715767277E+04    0.843338283027029684E+04    0.952124528428966443E+00   -0.313536057949914266E+03
    0.159955191726247881E+04    0.742853538700807076E+04    0.100349334196862583E+01   -0.313531658660572759E+03
    0.879889221013594010E+03    0.922770479834951220E+04    0.902645797180032683E+00   -0.313529826497667386E+03
    0.879889221013594010E+03    0.922770479834951220E+04    0.902645797180032683E+00   -0.313529826497667386E+03
    0.915993062421724517E+03    0.941606954693374610E+04    0.874251477478609429E+00   -0.313528019442818618E+03
    0.259452974673996960E+04    0.690632452924580957E+04    0.476771963051216330E+00   -0.313521943142717248E+03
    0.259452974673996960E+04    0.690632452924580957E+04    0.476771963051216330E+00   -0.313521943142717248E+03
    0.528411488238357833E+03    0.104660085467186564E+05    0.702959422967793346E+00   -0.313520950263383725E+03
    0.528411488238357833E+03    0.104660085467186564E+05    0.702959422967793346E+00   -0.313520950263383725E+03
    0.205382753419605297E+04    0.540117586263759767E+04    0.762040239249362927E+00   -0.313511698761262664E+03
    0.227142435860480282E+04    0.691784929378139350E+04    0.808982512823238742E+00   -0.313507168364516019E+03
    0.879672791825862873E+03    0.105370577975467404E+05    0.595824639571147952E+00   -0.313495512254604876E+03
    0.218426543035638224E+04    0.843284344416770909E+04    0.515770259775185314E+00   -0.313491318248521225E+03
    0.913261123435584636E+03    0.684543361388173162E+04    0.837316980517791687E+00   -0.313487794789505983E+03
    0.913261123435584636E+03    0.684543361388173162E+04    0.837316980517791687E+00   -0.313487794789505983E+03
    0.296215652367464656E+03    0.924838187423823729E+04    0.742877236317696421E+00   -0.313475425395859645E+03
    0.242126060097354548E+04    0.561991201074761921E+04    0.703270181439229147E+00   -0.313472244853003190E+03
    0.142069765921249382E+04    0.653261232795727756E+04    0.462489771757723156E+00   -0.313467127881055660E+03
    0.142069765921249382E+04    0.653261232795727756E+04    0.462489771757723156E+00   -0.313467127881055660E+03
    0.183271734088144490E+04    0.775280243496747426E+04    0.895512836159519487E+00   -0.313466996745421909E+03
    0.241940412058981474E+04    0.736990949999564327E+04    0.631656699097378316E+00   -0.313459161582801755E+03
    0.241940412058981474E+04    0.736990949999564327E+04    0.631656699097378316E+00   -0.313459161582801755E+03
    0.283019841430772544E+03    0.965760716634787423E+04    0.649553366603234483E+00   -0.313425683362061420E+03
    0.475289260352631629E+03    0.833827441330479451E+04    0.618333394783604828E+00   -0.313403811315443932E+03
    0.208629722223754879E+04    0.622081102919383557E+04    0.888511836828318136E+00   -0.313400155731066093E+03
    0.208629722223754879E+04    0.622081102919383557E+04    0.888511836828318136E+00   -0.313400155731066093E+03
    0.685483847542808803E+03    0.760140878906572925E+04    0.596300515879037096E+00   -0.313395219958403629E+03
    0.301346033519509376E+03    0.938199126340927978E+04    0.725851882845813701E+00   -0.313395217856315071E+03
    0.201891533832637879E+04    0.806113355354041505E+04    0.393533812781532544E+00   -0.313383046005779477E+03
    0.201891533832637879E+04    0.806113355354041505E+04    0.393533812781532544E+00   -0.313383046005779477E+03
    0.215458624331416968E+04    0.817391952907223458E+04    0.629193107561266896E+00   -0.313380551626719807E+03
    0.215458624331416968E+04    0.817391952907223458E+04    0.629193107561266896E+00   -0.313380551626719807E+03
    0.140068861775210735E+04    0.803394700859878958E+04    0.401898862416462888E+00   -0.313377494138304939E+03
    0.216461961645749579E+04    0.592737652605087533E+04    0.442614604293357417E+00   -0.313368250665295193E+03
    0.216461961645749579E+04    0.592737652605087533E+04    0.442614604293357417E+00   -0.313368250665295193E+03
    0.246141747705364014E+04    0.587592591762535085E+04    0.689307009459419140E+00   -0.313367373380502727E+03
    0.836272108840626174E+03    0.693465941385017777E+04    0.734549313697577477E+00   -0.313364535616348064E+03
    0.252971631363867618E+04    0.662087509489663717E+04    0.455454983418624337E+00   -0.313361667998959945E+03
    0.256666956663067049E+04    0.669185907688952011E+04    0.557980742205630764E+00   -0.313339535545728438E+03
    0.613964665636092832E+03    0.829595907287687987E+04    0.871831922406173576E+00   -0.313335473963200968E+03
    0.613964665636092832E+03    0.829595907287687987E+04    0.871831922406173576E+00   -0.313335473963200968E+03
    0.353334625251454838E+03    0.932496286024508481E+04    0.617371183987609040E+00   -0.313330660003398691E+03
    0.205093964279212651E+04    0.839411111991372127E+04    0.634663694404563050E+00   -0.313330259090219670E+03
    0.256005008635410240E+04    0.603090458852684515E+04    0.585187841943037079E+00   -0.313326811139321990E+03
    0.165717966826519159E+04    0.903889630097436202E+04    0.701015913664477464E+00   -0.313320287444969608E+03
    0.177922814666337717E+04    0.686444895865096987E+04    0.400862465267145807E+00   -0.313316580952677214E+03
    0.576217003090754133E+03    0.102475372854746165E+05    0.711751249000354247E+00   -0.313312013475097785E+03
    0.711391937466215495E+03    0.101409470503650300E+05    0.524682387626038693E+00   -0.313298486570680495E+03
    0.711391937466215495E+03    0.101409470503650300E+05    0.524682387626038693E+00   -0.313298486570680495E+03
    0.173804518975699557E+04    0.721362661460125491E+04    0.393909271919538673E+00   -0.313287897158774570E+03
    0.173804518975699557E+04    0.721362661460125491E+04    0.393909271919538673E+00   -0.313287897158774570E+03
    0.250802513527719157E+04    0.680090751396049563E+04    0.468138641826743807E+00   -0.313285289527429825E+03
    0.147511106092378236E+04    0.910676432425301209E+04    0.423818832110492372E+00   -0.313284860677170911E+03
    0.147511106092378236E+04    0.910676432425301209E+04    0.423818832110492372E+00   -0.313284860677170911E+03
    0.863468721543814240E+03    0.102308842512716255E+05    0.525205399836952802E+00   -0.313280892528776860E+03
    0.863468721543814240E+03    0.102308842512716255E+05    0.525205399836952802E+00   -0.313280892528776860E+03
    0.825942505843869299E+03    0.103988471184678183E+05    0.588553329542780501E+00   -0.313272363865636919E+03
    0.825942505843869299E+03    0.103988471184678183E+05    0.588553329542780501E+00   -0.313272363865636919E+03
    0.989749833092794233E+03    0.102724611320245240E+05    0.608847604170902557E+00   -0.313270167136158534E+03
    0.877457363675530814E+03    0.689161630546053584E+04    0.684278585755407454E+00   -0.313266561375400897E+03
    0.200648813055442042E+04    0.579670615448106673E+04    0.480263460722483326E+00   -0.313265175251564870E+03
    0.200648813055442042E+04    0.579670615448106673E+04    0.480263460722483326E+00   -0.313265175251564870E+03
    0.179323861540313828E+04    0.667267562615415227E+04    0.412374535968750233E+00   -0.313262664656840684E+03
    0.179323861540313828E+04    0.667267562615415227E+04    0.412374535968750233E+00   -0.313262664656840684E+03
    0.224748610897044318E+04    0.594635211837686620E+04    0.782709339651477376E+00   -0.313257722837098470E+03
    0.145606931434212834E+04    0.747075883613244514E+04    0.978548776416087840E+00   -0.313252019714774462E+03
    0.175250350357312482E+04    0.667913717925287710E+04    0.949862589809364111E+00   -0.313247775552402743E+03
    0.150109509246530297E+04    0.864859111585531900E+04    0.407750302719038227E+00   -0.313247407519562842E+03
    0.203650900518946173E+04    0.767529814429189446E+04    0.393336503458430520E+00   -0.313245647203123553E+03
    0.456713034376553423E+03    0.902146140279705105E+04    0.802974627192559298E+00   -0.313241173064041675E+03
    0.777898091468177768E+03    0.931016104951693160E+04    0.486651451877816443E+00   -0.313236601250348201E+03
    0.777898091468177768E+03    0.931016104951693160E+04    0.486651451877816443E+00   -0.313236601250348201E+03
    0.227628433763795192E+04    0.656208518628356978E+04    0.779809259408734246E+00   -0.313230347535346766E+03
    0.199135443983342338E+04    0.863784713932717204E+04    0.571907842075472295E+00   -0.313229249773589004E+03
    0.610736994120773602E+03    0.877032539780935986E+04    0.863105333798262819E+00   -0.313226606224662930E+03
    0.711260016319209967E+03    0.917740876747855327E+04    0.861427939739914605E+00   -0.313226558234759807E+03
    0.711260016319209967E+03    0.917740876747855327E+04    0.861427939739914605E+00   -0.313226558234759807E+03
    0.230304550606807425E+04    0.559349926508217231E+04    0.550554370490417000E+00   -0.313222969108894347E+03
    0.102395465974613307E+04    0.985936650571841710E+04    0.725972075479996426E+00   -0.313214115896165481E+03
    0.227680881256750945E+04    0.684286242246586971E+04    0.411450036458019419E+00   -0.313214100144024769E+03
    0.194106453088875855E+04    0.875397250839707158E+04    0.564495300269113098E+00   -0.313207765493916384E+03
    0.194106453088875855E+04    0.875397250839707158E+04    0.564495300269113098E+00   -0.313207765493916384E+03
    0.909106583165285087E+03    0.986315460276662816E+04    0.491569015637935480E+00   -0.313206904796157858E+03
    0.141290981266112226E+04    0.690349501265745675E+04    0.449972154594681817E+00   -0.313204509524121420E+03
    0.164698329184916633E+04    0.871823060974297732E+04    0.415103285549078771E+00   -0.313193054248369890E+03
    0.164698329184916633E+04    0.871823060974297732E+04    0.415103285549078771E+00   -0.313193054248369890E+03
    0.786128650563618976E+03    0.882965969472243160E+04    0.490007534329306160E+00   -0.313189898539958392E+03
    0.192316147391061531E+04    0.735233089569614367E+04    0.865362700494981874E+00   -0.313184045864328425E+03
    0.689847137810525282E+03    0.775981216650296392E+04    0.826891416764700460E+00   -0.313175345753317174E+03
    0.614978264443662397E+03    0.829216977404263162E+04    0.569898281003466955E+00   -0.313165058538401809E+03
    0.614978264443662397E+03    0.829216977404263162E+04    0.569898281003466955E+00   -0.313165058538401809E+03
    0.416729642556957685E+03    0.100213825768473325E+05    0.660439875294342671E+00   -0.313160870880160417E+03
    0.234234045586227421E+04    0.646382140000792879E+04    0.729482150079329039E+00   -0.313153420033265832E+03
    0.118573884156204554E+04    0.637804135778246382E+04    0.783025838046080391E+00   -0.313151804241024990E+03
    0.228577463573965360E+04    0.770235643427065497E+04    0.465232692199244180E+00   -0.313151793688933992E+03
    0.198085663852510152E+04    0.861723129994583178E+04    0.487175234505914156E+00   -0.313140256126657334E+03
    0.824472625805641997E+03    0.965626318790959340E+04    0.787464085727647145E+00   -0.313133106285071904E+03
    0.199585626511556006E+04    0.657412988062651129E+04    0.873109153419683648E+00   -0.313124404640426292E+03
    0.132953259868650662E+04    0.864145598232901102E+04    0.423533091605138023E+00   -0.313112559989832562E+03
    0.238893153086090251E+04    0.586927267202387429E+04    0.529636880681668809E+00   -0.313110680504037020E+03
    0.238893153086090251E+04    0.586927267202387429E+04    0.529636880681668809E+00   -0.313110680504037020E+03
    0.429202969569138759E+03    0.878951418633508911E+04    0.657412311489313117E+00   -0.313108322941054325E+03
    0.429202969569138759E+03    0.878951418633508911E+04    0.657412311489313117E+00   -0.313108322941054325E+03
    0.606583307860626292E+03    0.100169719686215285E+05    0.559881137434887655E+00   -0.313107239258660456E+03
    0.159440214606102859E+04    0.715513278460156926E+04    0.948098548089143289E+00   -0.313096525664186117E+03
    0.159440214606102859E+04    0.715513278460156926E+04    0.948098548089143289E+00   -0.313096525664186117E+03
    0.762318250362189247E+03    0.966627018717837564E+04    0.508796668639247662E+00   -0.313096177088243110E+03
    0.228973203057968203E+04    0.572262446140065367E+04    0.663478942035700348E+00   -0.313093091776780625E+03
    0.583126276004363831E+03    0.101128949548437431E+05    0.683859648458771008E+00   -0.313078945097357405E+03
    0.153172003687801066E+04    0.762907884162674327E+04    0.931646219320930724E+00   -0.313068732563646222E+03
    0.153172003687801066E+04    0.762907884162674327E+04    0.931646219320930724E+00   -0.313068732563646222E+03
    0.632930537419485404E+03    0.945000788035844198E+04    0.800797668422758346E+00   -0.313065897158964617E+03
    0.632930537419485404E+03    0.945000788035844198E+04    0.800797668422758346E+00   -0.313065897158964617E+03
    0.168781284520419467E+04    0.684846910545802166E+04    0.931471542165090427E+00   -0.313065222379748832E+03
    0.129524515743421216E+04    0.981668595885546711E+04    0.565046240638985564E+00   -0.313065053694970629E+03
    0.246086975540290814E+04    0.665156904085985207E+04    0.584707587566428044E+00   -0.313062453756824311E+03
    0.161048085169904584E+04    0.899071932324186855E+04    0.689517544380327752E+00   -0.313059360886275840E+03
    0.212358347378272583E+04    0.636404141547500421E+04    0.435210282434552564E+00   -0.313058568016095080E+03
    0.226945390709695766E+04    0.746882625894243756E+04    0.447368726251477777E+00   -0.313055307917523692E+03
    0.115800518984947576E+04    0.754363963451425570E+04    0.467324683303287858E+00   -0.313054019675793654E+03
    0.115800518984947576E+04    0.754363963451425570E+04    0.467324683303287858E+00   -0.313054019675793654E+03
    0.125685115124420349E+04    0.936956685539504178E+04    0.458331424068340210E+00   -0.313048029167134530E+03
    0.125685115124420349E+04    0.936956685539504178E+04    0.458331424068340210E+00   -0.313048029167134530E+03
    0.145330245144329592E+04    0.605888525387131904E+04    0.775860965858224838E+00   -0.313032603170805828E+03
    0.145330245144329592E+04    0.605888525387131904E+04    0.775860965858224838E+00   -0.313032603170805828E+03
    0.173270725092054272E+04    0.578764713423315425E+04    0.755284585759444793E+00   -0.313032139877973805E+03
    0.106178387999580241E+04    0.660956071908034301E+04    0.703986373539941201E+00   -0.313027480959266370E+03
    0.159771956536706625E+04    0.860489477238126528E+04    0.775130636806814932E+00   -0.313023954199944683E+03
    0.159771956536706625E+04    0.860489477238126528E+04    0.775130636806814932E+00   -0.313023954199944683E+03
    0.671101878744347346E+03    0.894113531143096588E+04    0.841105191863950941E+00   -0.313022565513727898E+03
    0.233279532452144895E+04    0.581827247389085460E+04    0.618518521413381595E+00   -0.313018620574971067E+03
    0.137490198491170759E+04    0.672243356496451543E+04    0.913593853112124044E+00   -0.313015018766634341E+03
    0.206060520745196573E+04    0.823800902159378165E+04    0.469080538936967717E+00   -0.313014626561340719E+03
    0.206060520745196573E+04    0.823800902159378165E+04    0.469080538936967717E+00   -0.313014626561340719E+03
    0.184081007118384900E+04    0.568593045667424121E+04    0.596157789332796839E+00   -0.313010174610784986E+03
    0.162090311631499731E+04    0.802110448120616456E+04    0.408950197837641582E+00   -0.313009617037512442E+03
    0.162090311631499731E+04    0.802110448120616456E+04    0.408950197837641582E+00   -0.313009617037512442E+03
    0.201764251113382193E+04    0.781014982938663070E+04    0.417173049039866961E+00   -0.313007612685539982E+03
    0.201764251113382193E+04    0.781014982938663070E+04    0.417173049039866961E+00   -0.313007612685539982E+03
    0.159572302934829895E+04    0.651694620348884018E+04    0.907564770468181736E+00   -0.313007524469680845E+03
    0.132973373130768573E+04    0.615323451601577563E+04    0.684657554607441599E+00   -0.313002199957869152E+03
    0.239850112370846955E+04    0.666223222828965118E+04    0.632346217920557563E+00   -0.312997859465605018E+03
    0.239850112370846955E+04    0.666223222828965118E+04    0.632346217920557563E+00   -0.312997859465605018E+03
    0.591455260156087888E+03    0.867042543376772301E+04    0.815391831834390346E+00   -0.312987275339989651E+03
    0.751021317902252690E+03    0.999404676990825465E+04    0.695455563767636398E+00   -0.312984028699032990E+03
    0.751021317902252690E+03    0.999404676990825465E+04    0.695455563767636398E+00   -0.312984028699032990E+03
    0.836785256422421980E+03    0.941123029679968749E+04    0.499372221138511208E+00   -0.312974116772752666E+03
    0.836785256422421980E+03    0.941123029679968749E+04    0.499372221138511208E+00   -0.312974116772752666E+03
    0.174201349431780113E+04    0.641286238773990499E+04    0.458933575773407210E+00   -0.312973578305075932E+03
    0.174201349431780113E+04    0.641286238773990499E+04    0.458933575773407210E+00   -0.312973578305075932E+03
    0.174682155810356198E+04    0.626266813566905512E+04    0.475287775140654845E+00   -0.312970659781413701E+03
    0.174682155810356198E+04    0.626266813566905512E+04    0.475287775140654845E+00   -0.312970659781413701E+03
    0.580561066112576214E+03    0.854544385410620271E+04    0.589121624912425479E+00   -0.312966644521965861E+03
    0.134412851792736933E+04    0.966549169655123660E+04    0.543700971010982137E+00   -0.312958016771139967E+03
    0.182046769239891796E+04    0.572246952364679146E+04    0.702130997548498392E+00   -0.312954817915589274E+03
    0.217408180091485565E+04    0.794190953125068972E+04    0.535463697907537783E+00   -0.312954493481878785E+03
    0.217408180091485565E+04    0.794190953125068972E+04    0.535463697907537783E+00   -0.312954493481878785E+03
    0.616812350124298746E+03    0.952806263741135081E+04    0.769214817558790398E+00   -0.312953487275056489E+03
    0.802462476586682328E+03    0.938660601002604199E+04    0.506358344741780653E+00   -0.312951230230036629E+03
    0.224633376899579889E+04    0.644441224554847668E+04    0.733223518210224134E+00   -0.312939354745199068E+03
    0.224633376899579889E+04    0.644441224554847668E+04    0.733223518210224134E+00   -0.312939354745199068E+03
    0.195288617393122104E+04    0.688863799626842865E+04    0.846174614423922722E+00   -0.312935552651981197E+03
    0.103806801974423479E+04    0.987390655784810951E+04    0.526779685689009014E+00   -0.312934150723015762E+03
    0.149845693451781290E+04    0.919159787108530145E+04    0.468614689731698619E+00   -0.312933906299083048E+03
    0.219921584496390687E+04    0.770352496489954865E+04    0.472709764477759253E+00   -0.312919923244764107E+03
    0.219921584496390687E+04    0.770352496489954865E+04    0.472709764477759253E+00   -0.312919923244764107E+03
    0.118638966367274884E+04    0.692826827008308919E+04    0.524329070273111708E+00   -0.312913284837674894E+03
    0.173353840055273486E+04    0.695845541250361111E+04    0.897998500028785340E+00   -0.312910988187992189E+03
    0.214463571816266494E+04    0.766411749675524879E+04    0.446396826312022599E+00   -0.312908227769418716E+03
    0.169345329533468407E+04    0.881347438804494232E+04    0.659746392246997826E+00   -0.312903075138044414E+03
    0.147314045146520448E+04    0.603420034898306403E+04    0.709484376634791469E+00   -0.312900009842650491E+03
    0.205323681357884607E+04    0.599080709328265038E+04    0.498647963989555632E+00   -0.312891640606465842E+03
    0.154922585632095206E+04    0.908365180055690143E+04    0.468388228604289247E+00   -0.312891053496177165E+03
    0.170849357302148405E+04    0.897225882946547426E+04    0.498861005645968858E+00   -0.312886927590047037E+03
    0.170849357302148405E+04    0.897225882946547426E+04    0.498861005645968858E+00   -0.312886927590047037E+03
    0.771825233156017475E+03    0.825787043790074313E+04    0.538054643875813698E+00   -0.312885617189927018E+03
    0.606042166992073248E+03    0.970029867465461211E+04    0.573625196863440379E+00   -0.312876017433138202E+03
    0.109841019820050838E+04    0.799160829126555927E+04    0.911866921894117999E+00   -0.312875798053981157E+03
    0.142281335394396115E+04    0.625048547374242480E+04    0.574464970822364029E+00   -0.312873009676888842E+03
    0.205977440965219103E+04    0.582050079210102831E+04    0.709113538327178161E+00   -0.312872009729319188E+03
    0.934246607270734785E+03    0.962430919572315725E+04    0.508904898292936392E+00   -0.312864772153383228E+03
    0.212293379448468113E+04    0.581227501429206131E+04    0.679989707098650698E+00   -0.312864274531449894E+03
    0.212293379448468113E+04    0.581227501429206131E+04    0.679989707098650698E+00   -0.312864274531449894E+03
    0.138112553334894733E+04    0.733685585597101090E+04    0.924777699438426359E+00   -0.312863072220414722E+03
    0.129821214233391402E+04    0.937683521008814751E+04    0.480951091489584481E+00   -0.312858327514581504E+03
    0.199242980988550789E+04    0.591031526505934835E+04    0.525844022257172306E+00   -0.312849325675377372E+03
    0.202357653034485020E+04    0.735909499536050680E+04    0.760225305368869009E+00   -0.312839633189895039E+03
    0.202357653034485020E+04    0.735909499536050680E+04    0.760225305368869009E+00   -0.312839633189895039E+03
    0.605986630034221434E+03    0.988706492962569246E+04    0.611387288612414537E+00   -0.312837544548352753E+03
    0.794754131377309250E+03    0.815401011477541851E+04    0.852019349529231307E+00   -0.312834573074406478E+03
    0.172688178200794800E+04    0.890335411027261034E+04    0.510501515646364479E+00   -0.312822699070974807E+03
    0.172688178200794800E+04    0.890335411027261034E+04    0.510501515646364479E+00   -0.312822699070974807E+03
    0.783516043520366793E+03    0.780089723630355820E+04    0.586238985488797826E+00   -0.312806048299587701E+03
    0.202432510520652590E+04    0.773143710259980708E+04    0.692768498952640144E+00   -0.312793340706759807E+03
    0.684128501459326799E+03    0.993565460340029495E+04    0.620638696834071357E+00   -0.312792894703771424E+03
    0.150165452081560829E+04    0.635782297459692654E+04    0.532145538312156718E+00   -0.312790994345897616E+03
    0.150165452081560829E+04    0.635782297459692654E+04    0.532145538312156718E+00   -0.312790994345897616E+03
    0.142569478775836069E+04    0.805053888849855593E+04    0.871329878260915347E+00   -0.312790316735169029E+03
    0.897694899684477150E+03    0.742872948301083943E+04    0.816274758349882612E+00   -0.312787456443859526E+03
    0.137581162767268393E+04    0.775308413956408731E+04    0.901517450335787784E+00   -0.312785267549672426E+03
    0.140943282399545728E+04    0.841628414712570702E+04    0.829116830083263423E+00   -0.312783811183567934E+03
    0.117845896708014720E+04    0.914256281866909376E+04    0.766476716487760390E+00   -0.312783572517242931E+03
    0.117845896708014720E+04    0.914256281866909376E+04    0.766476716487760390E+00   -0.312783572517242931E+03
    0.107379304181494945E+04    0.766966020832074719E+04    0.498275572921168974E+00   -0.312779704385208277E+03
    0.107379304181494945E+04    0.766966020832074719E+04    0.498275572921168974E+00   -0.312779704385208277E+03
    0.234354521032705316E+04    0.682200220050482039E+04    0.533836268235073463E+00   -0.312776089977489221E+03
    0.152494361552300006E+04    0.704967214067784789E+04    0.901272453776621130E+00   -0.312773478315444947E+03
    0.174361311475033540E+04    0.803700415874212922E+04    0.774782517937587900E+00   -0.312768591644316757E+03
    0.170066591789890731E+04    0.886319255038179290E+04    0.496315382474593947E+00   -0.312767317137429529E+03
    0.204620479408162237E+04    0.594874460227913460E+04    0.534733868261145773E+00   -0.312765915826944934E+03
    0.173399001376224646E+04    0.645148375320840478E+04    0.849654177366971686E+00   -0.312763719879763244E+03
    0.173399001376224646E+04    0.645148375320840478E+04    0.849654177366971686E+00   -0.312763719879763244E+03
    0.119499403994550744E+04    0.796912418295691896E+04    0.897396364925468482E+00   -0.312762964834907791E+03
    0.119499403994550744E+04    0.796912418295691896E+04    0.897396364925468482E+00   -0.312762964834907791E+03
    0.129656338878924930E+04    0.801487700848201621E+04    0.887362725238631023E+00   -0.312752628503894698E+03
    0.603621047189961473E+03    0.914562500677686148E+04    0.759328719417752485E+00   -0.312743628197839996E+03
    0.176568269737592914E+04    0.593824887607450910E+04    0.725835891445078540E+00   -0.312741683306896903E+03
    0.552738423952257904E+03    0.869201715273766968E+04    0.726639126093198584E+00   -0.312740927716205817E+03
    0.162578538829613854E+04    0.810158151201818964E+04    0.803477377551439220E+00   -0.312737384381216316E+03
    0.528933607068359379E+03    0.934013268756487014E+04    0.700150696463452071E+00   -0.312736702354266527E+03
    0.528933607068359379E+03    0.934013268756487014E+04    0.700150696463452071E+00   -0.312736702354266527E+03
    0.138093013659019653E+04    0.854614597823382974E+04    0.808257204514039707E+00   -0.312727873778586343E+03
    0.218051567559290743E+04    0.753118144385772302E+04    0.593440145688009402E+00   -0.312725391171097613E+03
    0.536263854277461064E+03    0.878497036082510385E+04    0.695317848051159593E+00   -0.312717660894661265E+03
    0.171330314267238737E+04    0.750401533054346964E+04    0.842419195800046650E+00   -0.312716284033596594E+03
    0.115566664707152813E+04    0.666585723773492828E+04    0.742127272306448149E+00   -0.312714464796374102E+03
    0.115566664707152813E+04    0.666585723773492828E+04    0.742127272306448149E+00   -0.312714464796374102E+03
    0.611686100995078164E+03    0.852043949338387756E+04    0.757799585314319568E+00   -0.312713849494843032E+03
    0.208040819763194577E+04    0.784516247106335959E+04    0.598807648575478413E+00   -0.312706864835523788E+03
    0.208040819763194577E+04    0.784516247106335959E+04    0.598807648575478413E+00   -0.312706864835523788E+03
    0.221464230472178133E+04    0.714330592281429381E+04    0.476847563789479512E+00   -0.312701270276581454E+03
    0.767757272631269188E+03    0.764418490243569340E+04    0.672960467710397414E+00   -0.312696591586247280E+03
    0.187942682643557123E+04    0.828163578215654888E+04    0.638064421526818415E+00   -0.312695786613617031E+03
    0.979901348981248134E+03    0.801137754369553295E+04    0.870288877999466526E+00   -0.312693415942758804E+03
    0.135517896634431463E+04    0.942428635096931430E+04    0.586730941653774596E+00   -0.312688122877215164E+03
    0.923157142411185191E+03    0.894378702737389904E+04    0.811990225374451313E+00   -0.312687630544198555E+03
    0.205754388593616386E+04    0.677226408790608548E+04    0.759282413177044146E+00   -0.312679351255340521E+03
    0.195775153665348716E+04    0.609059941822793826E+04    0.745034795361662838E+00   -0.312678963755519248E+03
    0.172323957793246677E+04    0.874493589398878248E+04    0.597417314600701688E+00   -0.312677906852129581E+03
    0.162809931662975487E+04    0.620318525263148422E+04    0.782294335848608413E+00   -0.312674331063896091E+03
    0.162809931662975487E+04    0.620318525263148422E+04    0.782294335848608413E+00   -0.312674331063896091E+03
    0.205979937578091358E+04    0.790386227042862356E+04    0.585914750274691976E+00   -0.312671811740490170E+03
    0.957300151643195932E+03    0.911602014752355717E+04    0.501833838290130729E+00   -0.312667682561763115E+03
    0.958119728382248127E+03    0.715995815398341438E+04    0.750072857586448372E+00   -0.312659712096736371E+03
    0.200570219271874453E+04    0.595718916532896401E+04    0.566598992291449721E+00   -0.312657439954050631E+03
    0.148905184364691195E+04    0.889742758063557267E+04    0.472119509743477550E+00   -0.312656101096048189E+03
    0.209135786884468780E+04    0.661349031054706393E+04    0.740920392243523240E+00   -0.312654384915400669E+03
    0.169217500429032361E+04    0.746534434065475034E+04    0.434043922984348185E+00   -0.312654201255551982E+03
    0.169217500429032361E+04    0.746534434065475034E+04    0.434043922984348185E+00   -0.312654201255551982E+03
    0.171864352278208844E+04    0.718106923423143962E+04    0.850463091436768792E+00   -0.312653063429162614E+03
    0.119013428789420277E+04    0.733210875918584861E+04    0.876448225302483452E+00   -0.312651388397759547E+03
    0.939361947878834371E+03    0.885032231330428112E+04    0.502007532784702337E+00   -0.312649964739295115E+03
    0.939361947878834371E+03    0.885032231330428112E+04    0.502007532784702337E+00   -0.312649964739295115E+03
    0.996420794396112115E+03    0.878002992747995813E+04    0.492730041505739236E+00   -0.312645274206886484E+03
    0.177405289324693672E+04    0.639355831967867107E+04    0.492715072344675487E+00   -0.312644175956966365E+03
    0.217662726146847035E+04    0.646399554211622308E+04    0.492461677930961628E+00   -0.312643279819794429E+03
    0.202647814873928382E+04    0.795032668406046378E+04    0.493550634386983378E+00   -0.312640231362593681E+03
    0.717402359501156752E+03    0.834058240279050915E+04    0.791320676936171030E+00   -0.312638895824367012E+03
    0.801351700436336046E+03    0.924352491603669841E+04    0.536065999712667107E+00   -0.312635849858691358E+03
    0.121642707727706897E+04    0.955637308492554803E+04    0.587708480693065694E+00   -0.312634298486944317E+03
    0.911341321166974694E+03    0.973615088525377178E+04    0.570300789529111229E+00   -0.312633206509431659E+03
    0.102764584369992758E+04    0.750509382337636544E+04    0.848834768811219886E+00   -0.312629458499329814E+03
    0.184638885059804011E+04    0.846352328132964067E+04    0.570004519046844016E+00   -0.312622377794310580E+03
    0.973482652739295531E+03    0.749348618682250981E+04    0.562023830885479581E+00   -0.312618708551783641E+03
    0.116942738594392995E+04    0.685527927989427371E+04    0.583949438824646561E+00   -0.312617766529028586E+03
    0.136183369539376145E+04    0.929409843984757390E+04    0.521528771280818204E+00   -0.312616965690110760E+03
    0.929779679385029453E+03    0.831073790476058275E+04    0.844049253553721957E+00   -0.312605978916497463E+03
    0.682608309240490598E+03    0.854724651192952479E+04    0.774154112444313647E+00   -0.312605339194390240E+03
    0.165796288666633632E+04    0.672680720442252914E+04    0.475433488868129195E+00   -0.312605005636376177E+03
    0.817411937062930519E+03    0.975481139502278893E+04    0.623781296777652039E+00   -0.312599569009236120E+03
    0.176292635972866083E+04    0.616508924575008314E+04    0.760192408928975771E+00   -0.312599209402010786E+03
    0.185496838814086095E+04    0.595793704025228271E+04    0.616435213571637997E+00   -0.312594448393112941E+03
    0.154963859770526233E+04    0.746534850200343772E+04    0.447641113274735825E+00   -0.312592273068486577E+03
    0.995688568123545679E+03    0.905972871488636338E+04    0.777334378953957739E+00   -0.312591950329073200E+03
    0.121951673883281455E+04    0.720296103885049888E+04    0.860976424842781807E+00   -0.312591520912015881E+03
    0.151870502779752201E+04    0.890516676447302416E+04    0.658198398558563103E+00   -0.312586475876033660E+03
    0.723763796909731468E+03    0.869864776457246080E+04    0.785020701843041957E+00   -0.312582841971171490E+03
    0.149626094903171497E+04    0.910231485729575252E+04    0.532824117911590900E+00   -0.312574876816662425E+03
    0.802576074474992879E+03    0.848855019321305554E+04    0.548798906268961884E+00   -0.312569139658018116E+03
    0.802576074474992879E+03    0.848855019321305554E+04    0.548798906268961884E+00   -0.312569139658018116E+03
    0.184185557376194174E+04    0.609043983852639667E+04    0.724456139384865416E+00   -0.312567678369619898E+03
    0.204114936298790985E+04    0.774831090561081237E+04    0.615231258915283519E+00   -0.312565620202306945E+03
    0.145456036241950051E+04    0.759946970941520522E+04    0.864766394149677597E+00   -0.312565598652459983E+03
    0.152179535130226964E+04    0.670983018761688436E+04    0.841109806421696860E+00   -0.312563143484830221E+03
    0.214891703353395906E+04    0.739632842858673030E+04    0.594536755032675113E+00   -0.312559319649796123E+03
    0.764175065155655147E+03    0.948951958959265357E+04    0.701886822045066361E+00   -0.312552802724265746E+03
    0.592934814309867875E+03    0.908400091002675254E+04    0.642963065941812517E+00   -0.312549743936934249E+03
    0.635777300583033480E+03    0.899946784393536655E+04    0.728013595851477180E+00   -0.312542329201823463E+03
    0.212034278274845610E+04    0.641769336861573720E+04    0.687642230218348693E+00   -0.312540628118374741E+03
    0.208519561318036995E+04    0.768893241009123722E+04    0.531498618749668528E+00   -0.312535613789951583E+03
    0.104883027668125487E+04    0.901165172360932593E+04    0.501498143098595417E+00   -0.312527557377142557E+03
    0.927111651396322372E+03    0.891988578343400513E+04    0.517109474206208120E+00   -0.312525498869130899E+03
    0.200368354828587076E+04    0.716824576911721215E+04    0.458177090466937276E+00   -0.312524585968303370E+03
    0.194034853837948890E+04    0.606857745639481800E+04    0.573507143534241481E+00   -0.312523411396798394E+03
    0.175587127885555537E+04    0.704713081703328771E+04    0.821527275973169324E+00   -0.312523094876792243E+03
    0.200534847556511704E+04    0.664044247755681590E+04    0.745212208216799565E+00   -0.312520972696634090E+03
    0.129744476484142842E+04    0.658070963950463738E+04    0.740992001752696416E+00   -0.312516973003625026E+03
    0.104182105936401808E+04    0.786374464597176848E+04    0.848620013159685493E+00   -0.312514746690771119E+03
    0.114409709629199665E+04    0.941663305241660964E+04    0.653523101109211524E+00   -0.312512619552522722E+03
    0.208950611395397209E+04    0.723175420861993643E+04    0.477257991501315482E+00   -0.312512363677603616E+03
    0.695264211539856660E+03    0.913761817851982596E+04    0.731509115096793172E+00   -0.312508045670527963E+03
    0.129517945719890099E+04    0.901084079213147197E+04    0.491520848094461948E+00   -0.312505971552884148E+03
    0.110600938431041527E+04    0.815926686772916855E+04    0.846126085636408898E+00   -0.312501487943301527E+03
    0.110600938431041527E+04    0.815926686772916855E+04    0.846126085636408898E+00   -0.312501487943301527E+03
    0.946016930839372321E+03    0.953358057322541754E+04    0.664372236100730262E+00   -0.312493577050047634E+03
    0.704248903065284708E+03    0.951055354083352904E+04    0.632386939322683639E+00   -0.312492667281927822E+03
    0.133368504778459805E+04    0.906881557008798336E+04    0.674807400582628114E+00   -0.312482534475759621E+03
    0.183327477335436515E+04    0.676122489313556252E+04    0.472695229595268662E+00   -0.312481608015045822E+03
    0.113824452001077748E+04    0.903891641454979617E+04    0.738217874380319383E+00   -0.312473777886125561E+03
    0.177755672366087720E+04    0.672807438070678654E+04    0.478950870061810974E+00   -0.312472323315908625E+03
    0.892795622344379240E+03    0.959867127973759671E+04    0.606451863048514839E+00   -0.312466847811399589E+03
    0.844637747399533509E+03    0.767289331078377199E+04    0.734090658986163769E+00   -0.312466240829483979E+03
    0.145404269147282912E+04    0.769872525977127771E+04    0.460854841287406003E+00   -0.312462649417984380E+03
    0.145797759952629644E+04    0.777789614553027059E+04    0.834466084103623107E+00   -0.312454556763725748E+03
    0.969074600217559919E+03    0.730473919305946765E+04    0.643731844784861007E+00   -0.312446912315786221E+03
    0.887369903242813052E+03    0.753731585771520713E+04    0.725783742799062437E+00   -0.312444165793293223E+03
    0.103984192675817235E+04    0.719407024435365111E+04    0.615570355793689017E+00   -0.312441431306534469E+03
    0.861537746735037558E+03    0.816764636596501623E+04    0.797963732270736248E+00   -0.312436444662812903E+03
    0.117699169181539287E+04    0.872725547504285350E+04    0.489587039378644839E+00   -0.312434580564318992E+03
    0.117699169181539287E+04    0.872725547504285350E+04    0.489587039378644839E+00   -0.312434580564318992E+03
    0.179401036283627786E+04    0.687115565535398946E+04    0.472522701534821510E+00   -0.312433293406165490E+03
    0.117878264571175305E+04    0.682627494556469901E+04    0.640776330101909153E+00   -0.312432504560921871E+03
    0.208817254489509014E+04    0.697522494022039064E+04    0.491289095265119879E+00   -0.312432079271392183E+03
    0.818800341783703175E+03    0.886170098326375592E+04    0.766254067911564252E+00   -0.312431741350377877E+03
    0.103782016178997515E+04    0.913714920103187978E+04    0.727393336016501912E+00   -0.312425008894529128E+03
    0.205778077257162204E+04    0.701563746374737821E+04    0.682518721114405924E+00   -0.312424216813184103E+03
    0.207628714355813781E+04    0.705952120252750410E+04    0.489353790397296651E+00   -0.312424147552264230E+03
    0.192136866709854462E+04    0.612113473165764935E+04    0.629960425877676200E+00   -0.312418462113867179E+03
    0.173862472635201698E+04    0.850700577743607391E+04    0.566725908283302604E+00   -0.312417759454647921E+03
    0.117949656054202569E+04    0.922132385374280602E+04    0.673391449441238521E+00   -0.312415875523244097E+03
    0.198156821975344815E+04    0.703217677334357177E+04    0.473511794080212767E+00   -0.312414980780002963E+03
    0.155311659003185855E+04    0.740162969207864808E+04    0.464707316097444256E+00   -0.312414673315752793E+03
    0.118240119754269608E+04    0.691815007289659661E+04    0.604397064030473996E+00   -0.312413314612497743E+03
    0.188137112618387755E+04    0.618207746974354723E+04    0.574118886040526966E+00   -0.312413197219009419E+03
    0.101453710839622386E+04    0.851714306362313982E+04    0.512010007638646236E+00   -0.312411709067198558E+03
    0.148100856875120121E+04    0.899066663264948875E+04    0.573926310816819440E+00   -0.312410748423514747E+03
    0.207567263245407094E+04    0.735525579327929881E+04    0.507334583070010225E+00   -0.312404688842088319E+03
    0.170113259820963685E+04    0.693001948266065301E+04    0.809445569531596631E+00   -0.312402820371463406E+03
    0.105208999068251296E+04    0.833474934002421287E+04    0.817779735577371825E+00   -0.312401110403172936E+03
    0.123939598978942695E+04    0.824363132175633109E+04    0.817206877308065183E+00   -0.312401068585851135E+03
    0.206940027426847109E+04    0.639904074850712459E+04    0.659348544119758073E+00   -0.312400949635198856E+03
    0.169659033459060129E+04    0.637948864630893786E+04    0.545580194657710127E+00   -0.312400875113795962E+03
    0.213264913784321197E+04    0.692492545217894531E+04    0.624442625450492006E+00   -0.312400850270755313E+03
    0.844003623157752031E+03    0.818400550005742934E+04    0.783724821510899949E+00   -0.312397451776207674E+03
    0.160386381514050754E+04    0.875693817994216806E+04    0.572128705816503547E+00   -0.312393827796372364E+03
    0.130655131889602148E+04    0.908150130223344604E+04    0.657813285843965145E+00   -0.312390457360523328E+03
    0.212284327287678116E+04    0.644670706617691030E+04    0.606984545596911063E+00   -0.312388278953506642E+03
    0.183986881238863475E+04    0.728022860693611074E+04    0.462551738302993065E+00   -0.312385600626205758E+03
    0.160488855498874113E+04    0.800600379622082801E+04    0.760260843763605143E+00   -0.312381068271812694E+03
    0.145230119845737067E+04    0.647555138785008239E+04    0.605862371567224778E+00   -0.312379051683819057E+03
    0.140475269346777236E+04    0.746352932475140187E+04    0.840927294436245476E+00   -0.312378272898325179E+03
    0.114185158506964945E+04    0.936991813496749455E+04    0.579284010574316111E+00   -0.312372479478524440E+03
    0.169772721694624352E+04    0.854567949873505313E+04    0.566543305859642965E+00   -0.312370661640574212E+03
    0.194831868408694845E+04    0.750270543986372195E+04    0.675419358867990649E+00   -0.312368088296062865E+03
    0.177879241596326369E+04    0.817595409038020625E+04    0.492174126105618115E+00   -0.312363195261694500E+03
    0.137789584260057518E+04    0.835573799152523679E+04    0.773580424813092415E+00   -0.312361312856690688E+03
    0.203422731915552117E+04    0.675310415435732466E+04    0.687314046281812030E+00   -0.312358328345241034E+03
    0.159710246394969181E+04    0.634559251496815341E+04    0.714805638483301253E+00   -0.312358259745628345E+03
    0.862296144703218033E+03    0.863511223212781806E+04    0.773598564070217543E+00   -0.312356847863518567E+03
    0.129152241577859763E+04    0.810625814912615715E+04    0.815349843195043777E+00   -0.312355038899199485E+03
    0.173952399321710300E+04    0.831009214475457884E+04    0.629799565830285846E+00   -0.312354559346026122E+03
    0.166924892515628244E+04    0.707632973882235274E+04    0.806026952760616644E+00   -0.312351350977095819E+03
    0.125957941471601862E+04    0.682615530774406034E+04    0.602823053936625719E+00   -0.312343816676945153E+03
    0.115250855605854804E+04    0.699039394118935979E+04    0.733824136655322756E+00   -0.312337042743332006E+03
    0.158394607218150554E+04    0.737334029816259499E+04    0.471013555683862051E+00   -0.312335516001466431E+03
    0.173431380261722825E+04    0.660380487853484010E+04    0.514307728029617328E+00   -0.312334513708629743E+03
    0.187873860962885533E+04    0.794049650224058769E+04    0.620314216849989331E+00   -0.312330984644048272E+03
    0.857537759320417649E+03    0.921443186245289507E+04    0.698532460789236476E+00   -0.312328950794091895E+03
    0.118805806051376544E+04    0.908055719291343848E+04    0.683569721961740484E+00   -0.312324804421397857E+03
    0.756941766032083592E+03    0.925995092801188366E+04    0.629166480556971441E+00   -0.312323827006048873E+03
    0.208896741419896671E+04    0.720828229337812809E+04    0.582667585615331496E+00   -0.312323333633183722E+03
    0.740132839203311391E+03    0.840002880646286940E+04    0.712601974797500981E+00   -0.312322125128923005E+03
    0.135797663187322041E+04    0.716075925329720849E+04    0.516781838443441943E+00   -0.312319118704665357E+03
    0.840038361606744274E+03    0.791910631104935601E+04    0.731543827257291945E+00   -0.312318136696347551E+03
    0.984538475386570440E+03    0.750885499594431712E+04    0.757744718213068769E+00   -0.312316271746961263E+03
    0.152277779305752711E+04    0.726147852949030766E+04    0.483648627276318577E+00   -0.312315449223461144E+03
    0.126524784367971620E+04    0.676528586013107906E+04    0.710536140220221824E+00   -0.312313618119188334E+03
    0.193683031696748367E+04    0.687648044037116597E+04    0.491568616506504907E+00   -0.312313353409648983E+03
    0.184311611150557155E+04    0.629298240140837788E+04    0.683294946629913524E+00   -0.312310409353759042E+03
    0.180451441901793419E+04    0.739222953438636796E+04    0.469352896982042245E+00   -0.312310256655930687E+03
    0.184160832129671508E+04    0.638587810639146574E+04    0.702751887690971966E+00   -0.312289615093424004E+03
    0.146496927572165782E+04    0.792948159366600976E+04    0.686632367714147707E+00   -0.311842899928063446E+03
    0.128887990742009310E+04    0.891231239236357032E+04    0.621485741873827990E+00   -0.312120830458936496E+03
    0.158574948892080874E+04    0.812308635355580645E+04    0.527848679953858202E+00   -0.311991038419881136E+03
    0.978825500168100803E+03    0.838538937654541951E+04    0.686229450213386216E+00   -0.311924154486333634E+03
    0.154136546856124278E+04    0.714245834473162904E+04    0.800844372588126907E+00   -0.312234158199308013E+03
    0.127681745202996217E+04    0.858420456936638220E+04    0.599740180601060380E+00   -0.311876386197019087E+03
    0.127681745202996217E+04    0.858420456936638220E+04    0.599740180601060380E+00   -0.311876386197019087E+03
    0.149044784642268564E+04    0.796272436303509949E+04    0.597169198699638359E+00   -0.311741544251408754E+03
    0.975279892445520545E+03    0.907846430948935995E+04    0.694418307292340997E+00   -0.312222394855733342E+03
    0.144850891059860487E+04    0.648229728110384440E+04    0.672151733636734416E+00   -0.312306084727830523E+03
    0.182220768436431581E+04    0.702882663888914703E+04    0.670114082317377235E+00   -0.312001231722675925E+03
    0.182220768436431581E+04    0.702882663888914703E+04    0.670114082317377235E+00   -0.312001231722675925E+03
    0.194308985202912800E+04    0.694833729902154209E+04    0.527926602951274471E+00   -0.312142229394040271E+03
    0.153640453678256085E+04    0.729885366311076814E+04    0.567333848563342458E+00   -0.311798903176677868E+03
    0.166409216699099875E+04    0.703186202957549358E+04    0.785986582441801307E+00   -0.312253252676739464E+03
    0.101213397428392375E+04    0.777501410439216215E+04    0.759793959575162825E+00   -0.312150049270778879E+03
    0.195241623848678114E+04    0.687212071921818824E+04    0.693271670585304367E+00   -0.312244508281454785E+03
    0.117747409513766024E+04    0.867114324703602870E+04    0.691290577605079837E+00   -0.312020126127444826E+03
    0.139832681584981424E+04    0.716076791786274043E+04    0.646465891599103171E+00   -0.311806479061654613E+03
    0.139832681584981424E+04    0.716076791786274043E+04    0.646465891599103171E+00   -0.311806479061654613E+03
    0.159213243793100742E+04    0.669962871584216373E+04    0.709819556308448951E+00   -0.312068179390515184E+03
    0.166528853269065962E+04    0.827265758802745586E+04    0.672787323368750911E+00   -0.312308790767113919E+03
    0.125626338438389598E+04    0.788913070485062417E+04    0.537659383730643148E+00   -0.311956829170091510E+03
    0.132814175987171279E+04    0.720835101693709112E+04    0.728552183794676345E+00   -0.311952253099752795E+03
    0.151081282582226663E+04    0.685000659308275408E+04    0.618529851660240548E+00   -0.311930799547560127E+03
    0.185363850377834592E+04    0.692131754659136277E+04    0.645348209779394999E+00   -0.311994046236067391E+03
    0.125531882274681334E+04    0.772651188090480355E+04    0.762836541781512834E+00   -0.311991445085289740E+03
    0.987096598775860116E+03    0.806107206968916398E+04    0.615453663057706768E+00   -0.311958377469101322E+03
    0.190966762829654658E+04    0.763711344865473620E+04    0.564944541536127276E+00   -0.312139521411760882E+03
    0.196859657436064253E+04    0.750861684103429070E+04    0.511765433838376693E+00   -0.312264374459198848E+03
    0.143878909945934834E+04    0.750405377591394335E+04    0.726740689589607802E+00   -0.311871071268108267E+03
    0.145786016718055203E+04    0.690874937303972365E+04    0.551920364127329033E+00   -0.312135771577692196E+03
    0.157743909776965484E+04    0.833322620850640487E+04    0.641487494809756864E+00   -0.312092886068839960E+03
    0.179192656144325201E+04    0.824584180847300740E+04    0.555648499589535660E+00   -0.312298169013325264E+03
    0.174282975998739789E+04    0.718037168967852995E+04    0.595633639530131709E+00   -0.311833184717242830E+03
    0.157446926450527121E+04    0.776633072730303957E+04    0.622659065122685429E+00   -0.311759057089561509E+03
    0.157446926450527121E+04    0.776633072730303957E+04    0.622659065122685429E+00   -0.311759057089561509E+03
    0.145215634458251839E+04    0.689915847801853033E+04    0.592274623098698050E+00   -0.311994340319605726E+03
    0.882631841046427212E+03    0.862148341521019029E+04    0.748720142739935035E+00   -0.312228733096381120E+03
    0.158712135484696432E+04    0.831004506399232923E+04    0.686228731226272703E+00   -0.312241198050864000E+03
    0.135135814492504778E+04    0.748424453710955549E+04    0.630685950983121524E+00   -0.311711036098234274E+03
    0.878981286388463673E+03    0.793113846102305342E+04    0.758392390036536468E+00   -0.312307548764351225E+03
    0.189863465802632754E+04    0.748411650155787265E+04    0.670695523961864160E+00   -0.312236283062911696E+03
    0.101270479956738177E+04    0.805415543090980827E+04    0.568084297643189795E+00   -0.312097713954984499E+03
    0.737520055438662894E+03    0.863830669493519417E+04    0.706436778267429122E+00   -0.312284986468959403E+03
    0.183287633109477588E+04    0.659663107939183101E+04    0.514891479578486355E+00   -0.312300917818015421E+03
    0.166278301041879763E+04    0.677147654211946701E+04    0.531561392557913681E+00   -0.312153676834240343E+03
    0.955586982244246428E+03    0.848239221319534772E+04    0.673512338516800479E+00   -0.311935618045966180E+03
    0.955586982244246428E+03    0.848239221319534772E+04    0.673512338516800479E+00   -0.311935618045966180E+03
    0.142304682015040680E+04    0.828461142861867665E+04    0.711314598277159038E+00   -0.312070155621389858E+03
    0.129983299471664895E+04    0.820421547498167820E+04    0.737229978021635146E+00   -0.312014740677779400E+03
    0.962341436775369630E+03    0.820029248293004275E+04    0.771964395280034466E+00   -0.312195170131693317E+03
    0.161850660221414864E+04    0.674149241556106517E+04    0.684821216521700693E+00   -0.311990527811917502E+03
    0.936865525768228167E+03    0.800705341557885276E+04    0.623207167066395673E+00   -0.312054620990101853E+03
    0.187923733235030818E+04    0.728314145405369345E+04    0.604425402319161198E+00   -0.311990994816013256E+03
    0.187923733235030818E+04    0.728314145405369345E+04    0.604425402319161198E+00   -0.311990994816013256E+03
    0.122979119710868372E+04    0.796908677866728067E+04    0.619353957108849107E+00   -0.311706066430905366E+03
    0.205346309172805150E+04    0.711689491412264942E+04    0.585267620494737351E+00   -0.312231966995821836E+03
    0.139436090277602216E+04    0.720122975023654544E+04    0.600615199690094914E+00   -0.311832121824795763E+03
    0.182537254580822196E+04    0.653189285068730896E+04    0.613684605965855168E+00   -0.312087621724884002E+03
    0.108526011491966710E+04    0.779647801240705576E+04    0.608498917769729530E+00   -0.311909228567922241E+03
    0.140105373788472912E+04    0.859192696654553401E+04    0.505293085750908921E+00   -0.312204352664256476E+03
    0.138754492108716249E+04    0.804942905109450567E+04    0.639481626960940575E+00   -0.311727334142276163E+03
    0.148262154976979582E+04    0.861196621807012343E+04    0.504097504617558867E+00   -0.312261781794392903E+03
    0.131328901119961643E+04    0.759962284395642018E+04    0.809904672001131698E+00   -0.312203532106907289E+03
    0.147918735877465542E+04    0.804088492111796677E+04    0.473168788939942520E+00   -0.312287510389462454E+03
    0.172899272505101908E+04    0.707710235528703925E+04    0.736597256145063328E+00   -0.312105571255746042E+03
    0.128654181626697823E+04    0.710707206519574083E+04    0.790534945194039218E+00   -0.312245052280501682E+03
    0.127942332094083281E+04    0.857038593322903580E+04    0.669786850084901020E+00   -0.311962958254561727E+03
    0.124574923441108217E+04    0.701269563439699778E+04    0.694354232139213989E+00   -0.312094053027711880E+03
    0.125348476715149695E+04    0.784426276622162914E+04    0.701877348463372797E+00   -0.311786424391372975E+03
    0.111366766264891316E+04    0.894410856904055981E+04    0.722459421521852607E+00   -0.312294339110785529E+03
    0.105557095277801363E+04    0.866234085446682730E+04    0.577451342303471726E+00   -0.311966449785583222E+03
    0.114663921232480084E+04    0.734117954075155376E+04    0.665436945275672764E+00   -0.311987493060299755E+03
    0.858333680894686609E+03    0.852619367725186930E+04    0.725218313528855907E+00   -0.312152174437634585E+03
    0.151259092180056246E+04    0.877576400107725931E+04    0.576797822326213017E+00   -0.312256824509390640E+03
    0.165118538275286346E+04    0.778541271490136387E+04    0.483301871285608198E+00   -0.312171982108683835E+03
    0.101992591396341356E+04    0.800132156397160725E+04    0.715620845270970585E+00   -0.311955401239441187E+03
    0.121420004484810738E+04    0.803928755821232789E+04    0.660147470097043221E+00   -0.311725520408257523E+03
    0.108667893350234317E+04    0.737837817706686110E+04    0.670938303338264985E+00   -0.312068055563967619E+03
    0.108667893350234317E+04    0.737837817706686110E+04    0.670938303338264985E+00   -0.312068055563967619E+03
    0.114281283183926189E+04    0.895828610636041230E+04    0.594857577223455114E+00   -0.312045181902284526E+03
    0.117283004116325378E+04    0.762392363805652167E+04    0.803621171130541656E+00   -0.312210304161522686E+03
    0.841770394818594809E+03    0.897913913397850047E+04    0.602177495017983455E+00   -0.312179005479362729E+03
    0.197608762175596121E+04    0.763704047850382995E+04    0.547291442828862995E+00   -0.312268345747230740E+03
    0.157088511322244085E+04    0.811309977663156496E+04    0.600554185887061998E+00   -0.311875414466098960E+03
    0.132390800381435724E+04    0.675094277379898267E+04    0.629671593011107866E+00   -0.312230918609654054E+03
    0.118143171518441704E+04    0.843374617490043602E+04    0.595460942454230424E+00   -0.311808564583814871E+03
    0.155098341756096761E+04    0.801916542230950563E+04    0.662548763006236885E+00   -0.311907591978927996E+03
    0.161236279765337304E+04    0.807439757095870937E+04    0.517301335552093122E+00   -0.312032663761853939E+03
    0.170413755885116780E+04    0.663617650896178293E+04    0.707507757629270984E+00   -0.312106405225737092E+03
    0.126964861863594729E+04    0.807953588030060200E+04    0.805889857819750421E+00   -0.312277838719445924E+03
    0.995882113694495956E+03    0.813846765031935138E+04    0.653477301737519500E+00   -0.311883148620679776E+03
    0.995882113694495956E+03    0.813846765031935138E+04    0.653477301737519500E+00   -0.311883148620679776E+03
    0.147174348015208648E+04    0.716075676058579393E+04    0.751839402825674519E+00   -0.312005064123969134E+03
    0.182913879579848435E+04    0.660232823892645229E+04    0.538199751515909042E+00   -0.312190855589829823E+03
    0.148613780204561226E+04    0.665043031385790164E+04    0.567338591884882892E+00   -0.312263654395950596E+03
    0.105823642101857899E+04    0.822300191260498650E+04    0.747872595992710165E+00   -0.312032832244159863E+03
    0.189124960844730890E+04    0.758146162132992231E+04    0.662756718125897870E+00   -0.312245631602243691E+03
    0.104761251075969835E+04    0.831191316132139582E+04    0.774674003515422593E+00   -0.312171816758454725E+03
    0.181423493419067768E+04    0.740851016598364731E+04    0.662524830613171800E+00   -0.312028729380790082E+03
    0.149274727394939578E+04    0.772299069357622284E+04    0.516151752239154882E+00   -0.311954321613913237E+03
    0.142512993636430951E+04    0.856218772011213696E+04    0.674322329995141301E+00   -0.312137923526247846E+03
    0.156832333538800776E+04    0.788921324632382766E+04    0.565999742402725659E+00   -0.311803618943147399E+03
    0.171942562912835228E+04    0.748527415977007331E+04    0.528533238473195111E+00   -0.311938875206734679E+03
    0.171942562912835228E+04    0.748527415977007331E+04    0.528533238473195111E+00   -0.311938875206734679E+03
    0.883393333494217700E+03    0.918821767115595503E+04    0.599451886353833174E+00   -0.312218442753294596E+03
    0.177612232545078268E+04    0.701356974763637481E+04    0.584855288605606982E+00   -0.311888446328865598E+03
    0.177612232545078268E+04    0.701356974763637481E+04    0.584855288605606982E+00   -0.311888446328865598E+03
    0.123024072922550863E+04    0.796684352415101512E+04    0.804674701939075754E+00   -0.312220361429819661E+03
    0.183134737414512665E+04    0.773756163895207283E+04    0.587576288624857113E+00   -0.312056718998383076E+03
    0.155070442390781022E+04    0.761199341586624359E+04    0.501767094125961988E+00   -0.312041947083166349E+03
    0.155070442390781022E+04    0.761199341586624359E+04    0.501767094125961988E+00   -0.312041947083166349E+03
    0.131854087705917232E+04    0.890806365815106255E+04    0.612573051095864241E+00   -0.312137767289780982E+03
    0.963978572396188156E+03    0.888717841230093836E+04    0.588852043560643801E+00   -0.312064433141874474E+03
    0.963978572396188156E+03    0.888717841230093836E+04    0.588852043560643801E+00   -0.312064433141874474E+03
    0.851394546084689409E+03    0.879130757189803262E+04    0.599697981521939205E+00   -0.312141258941336048E+03
    0.144192864960887186E+04    0.888312874487579393E+04    0.607567570951267899E+00   -0.312275687852281919E+03
    0.130905268131828484E+04    0.876162548381153101E+04    0.631408023974740384E+00   -0.312037660494815782E+03
    0.154330979060919844E+04    0.688942999576012608E+04    0.569110472969116210E+00   -0.311990086590562100E+03
    0.134160970182282040E+04    0.816298297382310284E+04    0.735095278252467788E+00   -0.312016686009186969E+03
    0.144264529753629313E+04    0.792335024127465476E+04    0.747279315508243447E+00   -0.312049445655283989E+03
    0.179319978441680837E+04    0.736222799797020798E+04    0.714245200890930687E+00   -0.312152627897807690E+03
    0.980699228058702374E+03    0.890363078325814604E+04    0.538989227358181888E+00   -0.312276178355546051E+03
    0.180769282577134322E+04    0.766946880357084865E+04    0.525142195728767969E+00   -0.312057960523128884E+03
    0.135834105917947045E+04    0.873684506551617415E+04    0.636434086596220250E+00   -0.312083015804242336E+03
    0.189903957948658604E+04    0.745232060895784070E+04    0.557457373729846273E+00   -0.312058671530087054E+03
    0.166869415067054911E+04    0.720010780035951939E+04    0.757154531344685355E+00   -0.312131290208900793E+03
    0.938220751093523972E+03    0.762261277324476941E+04    0.692178129100412876E+00   -0.312214026042310081E+03
    0.747071779937684369E+03    0.888797325125330826E+04    0.711319109981700337E+00   -0.312306644475508904E+03
    0.187217150773826870E+04    0.636938391211981070E+04    0.649965218845776072E+00   -0.312221983325542737E+03
    0.102169204159736978E+04    0.838527758176771567E+04    0.679112601622913536E+00   -0.311879841442827797E+03
    0.160701230689365298E+04    0.716376622014762233E+04    0.564493589944125684E+00   -0.311839139156707176E+03
    0.144805029956606518E+04    0.739352510397469632E+04    0.733931096453951826E+00   -0.311901470005327099E+03
    0.144805029956606518E+04    0.739352510397469632E+04    0.733931096453951826E+00   -0.311901470005327099E+03
    0.124032978732631750E+04    0.803150105660710506E+04    0.539619778576334475E+00   -0.311939035301405795E+03
    0.124032978732631750E+04    0.803150105660710506E+04    0.539619778576334475E+00   -0.311939035301405795E+03
    0.169024195123071763E+04    0.653576462845671631E+04    0.679321909424984716E+00   -0.312106951122343901E+03
    0.117820429420217602E+04    0.887231521558477289E+04    0.661072612325954156E+00   -0.312070207628817627E+03
    0.152179574791092796E+04    0.720492293988397523E+04    0.598828334648026872E+00   -0.311765618776759140E+03
    0.103613455117317039E+04    0.794121366228024908E+04    0.732949746837368354E+00   -0.311994685972175887E+03
    0.104655087904219931E+04    0.792161972541128398E+04    0.774997185078587947E+00   -0.312139969839677747E+03
    0.150597307948452521E+04    0.807574872760077778E+04    0.677810963970026159E+00   -0.311925975817145513E+03
    0.150597307948452521E+04    0.807574872760077778E+04    0.677810963970026159E+00   -0.311925975817145513E+03
    0.890066700119109782E+03    0.875150471430521975E+04    0.608660490500403939E+00   -0.312060758394928314E+03
    0.890066700119109782E+03    0.875150471430521975E+04    0.608660490500403939E+00   -0.312060758394928314E+03
    0.193030829784289631E+04    0.627531520847603497E+04    0.629728944140068858E+00   -0.312299368982106841E+03
    0.111314437783118933E+04    0.827570689781286819E+04    0.511423386979278805E+00   -0.312276282119960342E+03
    0.193419694402289792E+04    0.649878827600337900E+04    0.536237403276815017E+00   -0.312281872787423481E+03
    0.956912602348627502E+03    0.818477025330212109E+04    0.629633058331431017E+00   -0.311948425321999139E+03
    0.178668570359778346E+04    0.766300942464237505E+04    0.501681302935108486E+00   -0.312122950505227323E+03
    0.107022590636021005E+04    0.847208516514770781E+04    0.775079992300420129E+00   -0.312227492078391776E+03
    0.137628536794365459E+04    0.864909809687682719E+04    0.530533412093528889E+00   -0.312100631264274057E+03
    0.149650887166302391E+04    0.826616929061734663E+04    0.606305931538007492E+00   -0.311876792105592187E+03
    0.146283795936234060E+04    0.699703654998859292E+04    0.579262905232609371E+00   -0.311950860469244276E+03
    0.149717042023251724E+04    0.692658215419878252E+04    0.750554122740973662E+00   -0.312079979189452956E+03
    0.153771424005435892E+04    0.741963340402316135E+04    0.478982454806180569E+00   -0.312277990457230317E+03
    0.167364744057338976E+04    0.669076750471387732E+04    0.524440733788617774E+00   -0.312245176468636089E+03
    0.188798444156246251E+04    0.736872253920413277E+04    0.688570295500096630E+00   -0.312225698780699645E+03
    0.180356443542395800E+04    0.723738334075500097E+04    0.709638556503350171E+00   -0.312117764966294430E+03
    0.209464506612644027E+04    0.706999259189385702E+04    0.571706259821393892E+00   -0.312293792738312504E+03
    0.148728218862857807E+04    0.667114159187923815E+04    0.690037092899951299E+00   -0.312097877862149346E+03
    0.775416629448570234E+03    0.909030483889582501E+04    0.644757709905619092E+00   -0.312236170277416932E+03
    0.132622133573665906E+04    0.753928383447301621E+04    0.815589064941705688E+00   -0.312231910340179638E+03
    0.130224794100708891E+04    0.786763488530609084E+04    0.500876497895255568E+00   -0.312183237945331030E+03
    0.169205882795797493E+04    0.751592879419531255E+04    0.672233270791752768E+00   -0.311912094329880347E+03
    0.135682338586447327E+04    0.767166428091212128E+04    0.523205182902305110E+00   -0.312001158628604912E+03
    0.181698929249159073E+04    0.660397692190935595E+04    0.724973143187839231E+00   -0.312230382312381550E+03
    0.174256009285757773E+04    0.689592944961715330E+04    0.715891310384487056E+00   -0.312061636296244558E+03
    0.173266496685815787E+04    0.836075276583416417E+04    0.575527447637143919E+00   -0.312282338720842347E+03
    0.169618481458700353E+04    0.785448822470197410E+04    0.532994139420485125E+00   -0.311973650267430855E+03
    0.118027678185627406E+04    0.743875592703727307E+04    0.582573463799096802E+00   -0.312028742226147187E+03
    0.149885909483739943E+04    0.689093311638682189E+04    0.544994041164417964E+00   -0.312136076260688640E+03
    0.204464054846998715E+04    0.735525010205292347E+04    0.573519258416383848E+00   -0.312279044886314978E+03
    0.123000745467040315E+04    0.776410691400706855E+04    0.653837336675531233E+00   -0.311720449301080009E+03
    0.123000745467040315E+04    0.776410691400706855E+04    0.653837336675531233E+00   -0.311720449301080009E+03
    0.205466832281016241E+04    0.699413095530486135E+04    0.585483503750164225E+00   -0.312215361071252119E+03
    0.159790788834778596E+04    0.734751564724390937E+04    0.752446386698620073E+00   -0.312057929580308667E+03
    0.182500509864107994E+04    0.713259938230306489E+04    0.515599208842258627E+00   -0.312073037053797293E+03
    0.152565622538471553E+04    0.862303430820544781E+04    0.633251715118366754E+00   -0.312226473472529108E+03
    0.164107143576256954E+04    0.780685458429737810E+04    0.619051210682803998E+00   -0.311838059887590703E+03
    0.142160606414616541E+04    0.883061640760724367E+04    0.649834051584518346E+00   -0.312293182827882276E+03
    0.131718037396672003E+04    0.692240581114282395E+04    0.643298650019407448E+00   -0.312056565792652407E+03
    0.119373016306140812E+04    0.810628242891992977E+04    0.796002884006662859E+00   -0.312208728314253392E+03
    0.162162374179618291E+04    0.744655327120283891E+04    0.621375402492609585E+00   -0.311744252853681871E+03
    0.162162374179618291E+04    0.744655327120283891E+04    0.621375402492609585E+00   -0.311744252853681871E+03
    0.112859181099624584E+04    0.814538986650101106E+04    0.729949618620357787E+00   -0.311928877437537267E+03
    0.164000943294297190E+04    0.739188139827326086E+04    0.718993824511423352E+00   -0.311973863952790396E+03
    0.129486826966894137E+04    0.722192063035642786E+04    0.753562869648914835E+00   -0.312045238955228285E+03
    0.151989727350412113E+04    0.718225068056001237E+04    0.649304546204255373E+00   -0.311760144402354115E+03
    0.151989727350412113E+04    0.718225068056001237E+04    0.649304546204255373E+00   -0.311760144402354115E+03
    0.151471885296270921E+04    0.688074939031740723E+04    0.758492379526390814E+00   -0.312126207492785909E+03
    0.133748881124859531E+04    0.870098891191512121E+04    0.535421835472545848E+00   -0.312093184106821639E+03
    0.154158118335097129E+04    0.704750620609306497E+04    0.734343689612051431E+00   -0.311982969980392340E+03
    0.178561287775685150E+04    0.681699878900876229E+04    0.534959754635699669E+00   -0.312081512104563956E+03
    0.104114223829450179E+04    0.800394340116435615E+04    0.700187332981160870E+00   -0.311898070193303340E+03
    0.116958399392533556E+04    0.853570483071211311E+04    0.768987608294975922E+00   -0.312262665433935183E+03
    0.163077534634827180E+04    0.661420818977415092E+04    0.693213919557396641E+00   -0.312082117678644806E+03
    0.194488978270470716E+04    0.694724532964518130E+04    0.504643196467176369E+00   -0.312233041232602318E+03
    0.731502651444521575E+03    0.858317397316326787E+04    0.636003768550247428E+00   -0.312290755236543646E+03
    0.140800214035862359E+04    0.716278723112829539E+04    0.619314875120827169E+00   -0.311812147842196850E+03
    0.140800214035862359E+04    0.716278723112829539E+04    0.619314875120827169E+00   -0.311812147842196850E+03
    0.204027974083284244E+04    0.709025068826521874E+04    0.626514661994875377E+00   -0.312255132129588219E+03
    0.137122598047881252E+04    0.802696097705581633E+04    0.643757931349648982E+00   -0.311718581933953999E+03
    0.118605313833184346E+04    0.853512672871472932E+04    0.667630813987343030E+00   -0.311882770240473917E+03
    0.111511117599176737E+04    0.837757211463728163E+04    0.588123096205164120E+00   -0.311843210519272986E+03
    0.111511117599176737E+04    0.837757211463728163E+04    0.588123096205164120E+00   -0.311843210519272986E+03
    0.127983736869750351E+04    0.719470066824751029E+04    0.754187983559794439E+00   -0.312071488443076078E+03
    0.124304228651566746E+04    0.689023145413483417E+04    0.634404394624392021E+00   -0.312227325909003241E+03
    0.162802829981594323E+04    0.767819814900139954E+04    0.712891226023607216E+00   -0.312018260246484374E+03
    0.186972299716709017E+04    0.668970414331033953E+04    0.704545888789095520E+00   -0.312189452877211522E+03
    0.152533404594728972E+04    0.675354693886234872E+04    0.631753128928763785E+00   -0.311979983608027226E+03
    0.110964295340509398E+04    0.868215817090440032E+04    0.665081385934174318E+00   -0.311931090181980210E+03
    0.110964295340509398E+04    0.868215817090440032E+04    0.665081385934174318E+00   -0.311931090181980210E+03
    0.131103697571712837E+04    0.851593484608232757E+04    0.559238068967165325E+00   -0.311915769438855762E+03
    0.131103697571712837E+04    0.851593484608232757E+04    0.559238068967165325E+00   -0.311915769438855762E+03
    0.114816406625295008E+04    0.817462671568958194E+04    0.624612149292708696E+00   -0.311749243056860507E+03
    0.114816406625295008E+04    0.817462671568958194E+04    0.624612149292708696E+00   -0.311749243056860507E+03
    0.108208739020520306E+04    0.835305910668534307E+04    0.783685416382212452E+00   -0.312222676640121335E+03
    0.122178170812477174E+04    0.818678108606421029E+04    0.684743946788571312E+00   -0.311797478912876613E+03
    0.122178170812477174E+04    0.818678108606421029E+04    0.684743946788571312E+00   -0.311797478912876613E+03
    0.139044217700054151E+04    0.776521793782760597E+04    0.608152855197384823E+00   -0.311675826483760773E+03
