    0.114276824795422926E+05    0.128089327505519202E+01   -0.320597696151523166E+03
    0.119798584203130613E+05    0.118433622021616292E+01   -0.320412365521210006E+03
    0.112291621315295088E+05    0.128105253880834158E+01   -0.320350740067599304E+03
    0.105493023544490861E+05    0.132714465682057114E+01   -0.320229361896465207E+03
    0.708123243165131862E+04    0.889795038366854141E+00   -0.320140530645096305E+03
    0.142998402188464170E+05    0.509448717933196793E+00   -0.320011184923490760E+03
    0.123433325203392196E+05    0.400333410060285833E+00   -0.319980320212221443E+03
    0.997091030005303401E+04    0.131271741945475839E+01   -0.319855415633748521E+03
    0.783566241469588476E+04    0.540286797745904823E+00   -0.319631540615740676E+03
    0.111458670582223713E+05    0.120748960002172812E+01   -0.319460951217059176E+03
    0.918916091928353853E+04    0.125458686196800362E+01   -0.319404040310108655E+03
    0.129509344557093445E+05    0.450123557238389038E+00   -0.318738348856768084E+03
    0.748386788089031415E+04    0.876116695827378500E+00   -0.318708627135934933E+03
    0.119970543711311675E+05    0.426760375039013373E+00   -0.318690631580390573E+03
    0.125890484297079365E+05    0.918227640849602622E+00   -0.318648415293230073E+03
    0.760457203952852342E+04    0.910899307516017664E+00   -0.318566182797538090E+03
    0.124483302967162526E+05    0.919284168959897396E+00   -0.318377850546437912E+03
    0.132233378106791479E+05    0.748230387915962636E+00   -0.318298110769861978E+03
    0.135098605031037623E+05    0.546291886991155828E+00   -0.318194777234841638E+03
    0.126754745562613043E+05    0.857724753816201946E+00   -0.318183445599822619E+03
    0.134057503894261463E+05    0.678844716706956897E+00   -0.318173707091429151E+03
    0.891670099486786967E+04    0.497226860189885655E+00   -0.318112989963728580E+03
    0.121453767956097454E+05    0.947025026007059956E+00   -0.318107548222923754E+03
    0.795702321814032348E+04    0.961777272881160439E+00   -0.318061113371401746E+03
    0.792276542824485023E+04    0.609681883020050219E+00   -0.318025892005530693E+03
    0.761833882287041706E+04    0.788745827395601729E+00   -0.317995537272565855E+03
    0.791479311847463669E+04    0.616078622572963530E+00   -0.317962606982711634E+03
    0.968164318190353515E+04    0.113807969317018798E+01   -0.317913573911500180E+03
    0.121236599893490147E+05    0.927626325585193090E+00   -0.317862184496196392E+03
    0.132560196074466439E+05    0.536208477333142586E+00   -0.317806968389183396E+03
    0.782247394031919976E+04    0.658650452369977546E+00   -0.317776945131107823E+03
    0.133355652706428846E+05    0.617563643749270308E+00   -0.317768026507619538E+03
    0.870309470752478410E+04    0.524672540482547523E+00   -0.317763330206017145E+03
    0.122425403134441312E+05    0.894660207886038394E+00   -0.317729579409472251E+03
    0.105479517717182807E+05    0.109794481258225352E+01   -0.317720216315332664E+03
    0.106427381848229270E+05    0.452026449497504534E+00   -0.317688896278138600E+03
    0.109815459995529673E+05    0.105308817752976136E+01   -0.317599318422973511E+03
    0.982661841529175581E+04    0.472284667227030608E+00   -0.317576283723068912E+03
    0.812034856654428859E+04    0.943689609511806915E+00   -0.317565878183530117E+03
    0.114744278744245785E+05    0.995172918684248176E+00   -0.317563516497382011E+03
    0.129434949680351692E+05    0.513222813678235301E+00   -0.317543949242858162E+03
    0.128824442582293577E+05    0.739476724334664826E+00   -0.317508575996570642E+03
    0.782048476648332689E+04    0.815511937418910815E+00   -0.317502174453693499E+03
    0.837878067352527614E+04    0.988220282970234898E+00   -0.317474431344641630E+03
    0.880620498580441563E+04    0.528684809409245893E+00   -0.317455736608316386E+03
    0.131210904687586917E+05    0.562795188959871240E+00   -0.317424256760666992E+03
    0.131111756781550157E+05    0.574540181149966744E+00   -0.317365325340395941E+03
    0.127649425842578839E+05    0.512235944926415665E+00   -0.317310857862612011E+03
    0.113569209258692736E+05    0.984862994255648272E+00   -0.317299838792027970E+03
    0.127179591015270180E+05    0.750620962736612496E+00   -0.317273661483401497E+03
    0.790481191523884718E+04    0.807889332631563928E+00   -0.317265954407062452E+03
    0.130763743942917863E+05    0.601194604348958772E+00   -0.317263610031177109E+03
    0.130128169115327728E+05    0.649497127410305075E+00   -0.317231708511474835E+03
    0.129350575944083412E+05    0.676466137270643419E+00   -0.317200348099986684E+03
    0.884627728464087886E+04    0.102049569121484218E+01   -0.317153170002769457E+03
    0.889842469360176437E+04    0.534750814385846929E+00   -0.317139216723364086E+03
    0.795253464802504459E+04    0.711354550305302813E+00   -0.317131384415892342E+03
    0.794518245404463596E+04    0.721493171107400411E+00   -0.317122641821080379E+03
    0.793509373334081283E+04    0.774594752627220551E+00   -0.317121766969872681E+03
    0.121368185558154782E+05    0.849565589074878336E+00   -0.317093365338907063E+03
    0.129555256073329765E+05    0.590353635354466943E+00   -0.317062806425422991E+03
    0.875760694896371024E+04    0.550885968377961555E+00   -0.317051745338008175E+03
    0.109411384928134357E+05    0.100246916072560932E+01   -0.317020849591380511E+03
    0.102153988069653442E+05    0.104795703074257829E+01   -0.317011708291598211E+03
    0.125985946006343584E+05    0.520299050488654879E+00   -0.316994445423329125E+03
    0.965664648854403822E+04    0.104682499533273932E+01   -0.316939590763841124E+03
    0.103238775260463772E+05    0.103658617554290533E+01   -0.316936961674737859E+03
    0.831749784443338831E+04    0.908229400859514757E+00   -0.316921874456534283E+03
    0.105333685135433479E+05    0.477076538377899761E+00   -0.316913650053362574E+03
    0.121567859377157565E+05    0.498767874672527589E+00   -0.316845067880088607E+03
    0.107393021177124356E+05    0.100214835290086923E+01   -0.316839900287230137E+03
    0.809250297572136151E+04    0.810842871511552543E+00   -0.316838012562011954E+03
    0.858020059246936034E+04    0.947947814354977658E+00   -0.316814511228816741E+03
    0.956664621710189567E+04    0.103285152752491238E+01   -0.316814346282685449E+03
    0.123454428517678389E+05    0.513728368370045207E+00   -0.316788157321899803E+03
    0.100491770972509621E+05    0.491549233197388080E+00   -0.316779301790785780E+03
    0.117200777354243401E+05    0.883263456745104758E+00   -0.316760857505439560E+03
    0.103287513131467949E+05    0.486737942314968086E+00   -0.316731428448036240E+03
    0.898152063377896047E+04    0.548450265060176356E+00   -0.316700338457844509E+03
    0.814465836892747848E+04    0.796077923856421954E+00   -0.316680521978177296E+03
    0.853666022771932330E+04    0.923318296584283105E+00   -0.316677918772294788E+03
    0.125851483972089409E+05    0.697072952933256551E+00   -0.316669705951487003E+03
    0.871244814578695150E+04    0.950893325987901994E+00   -0.316663974498785706E+03
    0.123278061558910522E+05    0.762033906563040708E+00   -0.316655175838553191E+03
    0.125989499948454522E+05    0.556746947849241058E+00   -0.316652146160141513E+03
    0.844689601445004155E+04    0.616063688124966591E+00   -0.316650404349558244E+03
    0.815018443169510374E+04    0.728252833423671975E+00   -0.316618481023825382E+03
    0.867289163398282835E+04    0.584484580855490710E+00   -0.316617691155460477E+03
    0.116131939577506655E+05    0.883512859184295229E+00   -0.316611813431921234E+03
    0.109155161023851415E+05    0.963808813964545430E+00   -0.316598072761035951E+03
    0.975553436411509028E+04    0.101423504842755174E+01   -0.316594187452652022E+03
    0.126694268091855902E+05    0.602015943266150266E+00   -0.316580202390383306E+03
    0.126150240009736262E+05    0.660609797395269704E+00   -0.316560358567798403E+03
    0.891337910851114975E+04    0.960162658408560188E+00   -0.316519364599730352E+03
    0.116200668537835081E+05    0.496334637531653355E+00   -0.316511775328829060E+03
    0.925893947877368373E+04    0.988384533561753154E+00   -0.316504484267674457E+03
    0.881897064577242236E+04    0.942251623221196488E+00   -0.316464479081732577E+03
    0.100228453023855855E+05    0.998321810928488151E+00   -0.316447643304580026E+03
    0.100235215484079781E+05    0.505629356731078561E+00   -0.316427509916993529E+03
    0.102557219511354779E+05    0.988616840891823112E+00   -0.316415006414708216E+03
    0.933524624109864271E+04    0.537605054548019878E+00   -0.316397818234585486E+03
    0.102217770965405689E+05    0.988061784493015183E+00   -0.316397036778842221E+03
    0.120321644117842134E+05    0.789109374242396022E+00   -0.316386443859310532E+03
    0.119234800732194381E+05    0.807758837014408093E+00   -0.316373685690039110E+03
    0.894486343423199651E+04    0.946145861383574371E+00   -0.316365827026156524E+03
    0.881583065393374090E+04    0.927306388147427052E+00   -0.316344382550969215E+03
    0.980077828074562240E+04    0.517166518684297860E+00   -0.316333779473773063E+03
    0.831905052473413343E+04    0.796899679176649500E+00   -0.316330264992559307E+03
    0.123881828837148551E+05    0.567661700255303159E+00   -0.316302204035309728E+03
    0.110682021597093171E+05    0.498452741247055797E+00   -0.316288008054858608E+03
    0.110320202319991222E+05    0.498439097056421476E+00   -0.316284474701292993E+03
    0.865909635769642227E+04    0.611624089507859181E+00   -0.316281761859120707E+03
    0.115443347317406005E+05    0.856698700915990208E+00   -0.316268582425002194E+03
    0.104847239134421434E+05    0.960054570463847234E+00   -0.316239787091775668E+03
    0.112618252315756363E+05    0.890567023377900724E+00   -0.316237244499864687E+03
    0.122411896253856357E+05    0.553050054175957206E+00   -0.316228945264255231E+03
    0.117940766347438475E+05    0.812408975628207131E+00   -0.316222979193513083E+03
    0.834445646032433615E+04    0.761247706517170886E+00   -0.316208645943880015E+03
    0.860655182980216341E+04    0.868330671545246124E+00   -0.316187540107659458E+03
    0.118825567635589214E+05    0.792084575238276800E+00   -0.316185024493705839E+03
    0.879566108058078134E+04    0.903702080702040722E+00   -0.316183525408626792E+03
    0.975153005394726461E+04    0.970694514291765342E+00   -0.316166511737202541E+03
    0.865380572613577533E+04    0.875075043208076053E+00   -0.316163921463197994E+03
    0.865380572613577533E+04    0.875075043208076053E+00   -0.316163921463197994E+03
    0.105269906746421857E+05    0.949663979437120442E+00   -0.316162744514311498E+03
    0.106681835351218269E+05    0.939868456275125497E+00   -0.316159527710461759E+03
    0.994175182874657003E+04    0.967907904121685370E+00   -0.316138304168395109E+03
    0.862142314047458058E+04    0.634340284848561087E+00   -0.316119746943094640E+03
    0.961089959634428669E+04    0.536501458393693009E+00   -0.316098999680865461E+03
    0.943314057392435279E+04    0.952978837372787879E+00   -0.316085590813116994E+03
    0.122415918918810512E+05    0.691496366729274503E+00   -0.316082790599782754E+03
    0.116765856419311385E+05    0.522347949066771067E+00   -0.316079556036721954E+03
    0.100600312031747835E+05    0.519870701523875711E+00   -0.316071196151163178E+03
    0.111022565381393033E+05    0.509220317482417251E+00   -0.316065715887341355E+03
    0.119094906630447531E+05    0.538331517138435522E+00   -0.316042274972093992E+03
    0.888205619376947470E+04    0.896865033982121584E+00   -0.316034824577377776E+03
    0.888205619376947470E+04    0.896865033982121584E+00   -0.316034824577377776E+03
    0.848960772932463260E+04    0.798897844918142641E+00   -0.316031230112331968E+03
    0.856928148864053219E+04    0.660160392080368807E+00   -0.316020021150930575E+03
    0.909080544521495358E+04    0.919761817468438658E+00   -0.316013646657834897E+03
    0.909080544521495358E+04    0.919761817468438658E+00   -0.316013646657834897E+03
    0.104724634429581347E+05    0.514019589635414831E+00   -0.316000718257176402E+03
    0.850055763371435569E+04    0.794951130345394219E+00   -0.316000166758536977E+03
    0.850055763371435569E+04    0.794951130345394219E+00   -0.316000166758536977E+03
    0.111892037098839864E+05    0.872145383509695393E+00   -0.315988000931905844E+03
    0.115872681172276280E+05    0.525243461259830680E+00   -0.315979091877056248E+03
    0.113638792391255029E+05    0.847998080164413137E+00   -0.315968596962220431E+03
    0.101086276102279189E+05    0.946956245495517823E+00   -0.315964754660489916E+03
    0.101086276102279189E+05    0.946956245495517823E+00   -0.315964754660489916E+03
    0.120262352387974224E+05    0.730069045725239563E+00   -0.315962042554592983E+03
    0.102231003336708418E+05    0.521512542386169065E+00   -0.315942752013792017E+03
    0.922102606908202324E+04    0.571025195905041749E+00   -0.315941822466296514E+03
    0.103543155686746832E+05    0.935548373994207094E+00   -0.315938828059737830E+03
    0.118456912792929070E+05    0.542647147800782492E+00   -0.315937579575870586E+03
    0.865218928165600846E+04    0.650729433960325454E+00   -0.315933914304062512E+03
    0.115723163632452197E+05    0.527734813758171883E+00   -0.315932877251828074E+03
    0.985888552259245262E+04    0.945933376629792821E+00   -0.315928329450199044E+03
    0.912498172109177176E+04    0.909486275656480991E+00   -0.315903396015710712E+03
    0.962270575644155724E+04    0.939613244577251150E+00   -0.315901065768243484E+03
    0.106034294013019462E+05    0.916943317986948281E+00   -0.315898653283766123E+03
    0.106034294013019462E+05    0.916943317986948281E+00   -0.315898653283766123E+03
    0.902386809138287208E+04    0.897516848222734254E+00   -0.315897608714671094E+03
    0.902386809138287208E+04    0.897516848222734254E+00   -0.315897608714671094E+03
    0.106422509650264692E+05    0.517322846492977328E+00   -0.315893741445223952E+03
    0.979365598638161828E+04    0.941826736334174242E+00   -0.315893525367798361E+03
    0.979365598638161828E+04    0.941826736334174242E+00   -0.315893525367798361E+03
    0.940576628733355028E+04    0.927198009055490657E+00   -0.315870895374037786E+03
    0.940576628733355028E+04    0.927198009055490657E+00   -0.315870895374037786E+03
    0.956421364134149735E+04    0.552838317437297833E+00   -0.315840758572057382E+03
    0.956421364134149735E+04    0.552838317437297833E+00   -0.315840758572057382E+03
    0.111393489129913687E+05    0.861020449985280600E+00   -0.315837760389067967E+03
    0.116289637811151970E+05    0.791880978934771496E+00   -0.315835985532679956E+03
    0.116289637811151970E+05    0.791880978934771496E+00   -0.315835985532679956E+03
    0.958152356202152077E+04    0.553367708684408321E+00   -0.315814147346800382E+03
    0.113695850755247266E+05    0.826464976174283161E+00   -0.315793460950899316E+03
    0.113695850755247266E+05    0.826464976174283161E+00   -0.315793460950899316E+03
    0.121339943327483070E+05    0.634403373802633119E+00   -0.315792772705827304E+03
    0.996384694046523509E+04    0.536901926245532457E+00   -0.315790748983563958E+03
    0.121299640101477198E+05    0.623780206997419429E+00   -0.315790457696133615E+03
    0.121299640101477198E+05    0.623780206997419429E+00   -0.315790457696133615E+03
    0.860116824661389182E+04    0.700160605862870433E+00   -0.315786547845220298E+03
    0.858629339198183152E+04    0.717778110314239770E+00   -0.315776460591882483E+03
    0.858629339198183152E+04    0.717778110314239770E+00   -0.315776460591882483E+03
    0.113487362183982386E+05    0.827228873037675672E+00   -0.315776036440153518E+03
    0.120164251431596349E+05    0.583859115799938988E+00   -0.315769603038654509E+03
    0.120164251431596349E+05    0.583859115799938988E+00   -0.315769603038654509E+03
    0.107646895330932712E+05    0.889901179355860550E+00   -0.315763451003992543E+03
    0.107232389632768809E+05    0.524712329077594464E+00   -0.315743617957210574E+03
    0.107232389632768809E+05    0.524712329077594464E+00   -0.315743617957210574E+03
    0.120118382871102203E+05    0.688294280997586938E+00   -0.315739589577762104E+03
    0.902293265043004067E+04    0.606989844032730264E+00   -0.315737483808586205E+03
    0.102195508054819275E+05    0.918774697988424816E+00   -0.315734490645198434E+03
    0.110430918146196873E+05    0.859315916087218468E+00   -0.315729393367431214E+03
    0.117332911000219865E+05    0.755855767583521687E+00   -0.315717958245330180E+03
    0.109599613285588493E+05    0.866305372766338677E+00   -0.315714316159992734E+03
    0.109599613285588493E+05    0.866305372766338677E+00   -0.315714316159992734E+03
    0.100030252532939467E+05    0.921279519613867892E+00   -0.315712150411560913E+03
    0.862724861070036604E+04    0.723716301144788354E+00   -0.315701853666781176E+03
    0.105683616515167450E+05    0.897608614236310887E+00   -0.315701241839035958E+03
    0.111418011562661504E+05    0.843855191930330539E+00   -0.315693701382905147E+03
    0.873854783526129904E+04    0.809095472252884806E+00   -0.315692201675489457E+03
    0.937817274575860210E+04    0.574909173352278535E+00   -0.315690259581784744E+03
    0.937817274575860210E+04    0.574909173352278535E+00   -0.315690259581784744E+03
    0.904490915666021283E+04    0.870442458335411562E+00   -0.315684248929065859E+03
    0.109873772246271492E+05    0.859494053075209319E+00   -0.315680048005638639E+03
    0.109873772246271492E+05    0.859494053075209319E+00   -0.315680048005638639E+03
    0.956185629899359810E+04    0.909559768008197933E+00   -0.315659269486795438E+03
    0.111944223366270071E+05    0.832449209828283521E+00   -0.315652805206200242E+03
    0.873756729020533203E+04    0.679244575015988006E+00   -0.315632804768573806E+03
    0.112138495132087392E+05    0.827314053159288965E+00   -0.315631295966120092E+03
    0.867249587734111446E+04    0.725972984121719844E+00   -0.315627816625541072E+03
    0.116824083755921129E+05    0.751700010285940801E+00   -0.315626689565363904E+03
    0.890721645110063218E+04    0.637411372186070135E+00   -0.315619796896363539E+03
    0.870915844770248805E+04    0.696323310665121098E+00   -0.315619188180306026E+03
    0.870915844770248805E+04    0.696323310665121098E+00   -0.315619188180306026E+03
    0.119094724953043060E+05    0.594650040276808789E+00   -0.315603885267398027E+03
    0.119094724953043060E+05    0.594650040276808789E+00   -0.315603885267398027E+03
    0.119752027862840023E+05    0.650997698801583979E+00   -0.315600181965429158E+03
    0.114844951183378653E+05    0.783687151301130869E+00   -0.315599151653858371E+03
    0.104799443513369824E+05    0.891165878249180032E+00   -0.315595979969192285E+03
    0.119472492695551500E+05    0.662186475039137412E+00   -0.315581801737196031E+03
    0.100133861245017542E+05    0.905843386455630561E+00   -0.315578312419568192E+03
    0.918572840687955977E+04    0.872135559138750627E+00   -0.315577244383633740E+03
    0.113683332517978251E+05    0.797397039301686039E+00   -0.315566064253953925E+03
    0.113683332517978251E+05    0.797397039301686039E+00   -0.315566064253953925E+03
    0.905640379550726902E+04    0.853597479816541882E+00   -0.315563786722529812E+03
    0.902511320173344939E+04    0.624075451371634449E+00   -0.315562871438944342E+03
    0.902511320173344939E+04    0.624075451371634449E+00   -0.315562871438944342E+03
    0.109854730297726182E+05    0.845366925077119635E+00   -0.315560189127611579E+03
    0.115272545202689835E+05    0.770506927413285081E+00   -0.315558775887825561E+03
    0.106526763911849666E+05    0.536203406900652824E+00   -0.315548041562268281E+03
    0.945782084207375920E+04    0.890540103563475904E+00   -0.315547508514224376E+03
    0.945782084207375920E+04    0.890540103563475904E+00   -0.315547508514224376E+03
    0.969744840067182304E+04    0.899903428424558283E+00   -0.315543498365487267E+03
    0.969744840067182304E+04    0.899903428424558283E+00   -0.315543498365487267E+03
    0.117779904040412457E+05    0.713742441019552087E+00   -0.315540184824378798E+03
    0.874377984367532736E+04    0.709336356235149790E+00   -0.315536809482581418E+03
    0.113491907457796951E+05    0.796021699646745406E+00   -0.315535053698712375E+03
    0.116908698517906214E+05    0.571562584249489913E+00   -0.315534216991014773E+03
    0.898981398510078725E+04    0.633261549567073256E+00   -0.315533609829516877E+03
    0.118316468178098949E+05    0.695624812590206032E+00   -0.315531460924250325E+03
    0.102186895330235893E+05    0.895454287396928228E+00   -0.315529289000641597E+03
    0.114335325671910869E+05    0.781601256748361117E+00   -0.315526096994935870E+03
    0.885757683984798496E+04    0.802833419951781480E+00   -0.315513474437863181E+03
    0.880194668049301617E+04    0.781037021467922532E+00   -0.315508549643384981E+03
    0.882364654043256087E+04    0.789122191057871736E+00   -0.315505491025878655E+03
    0.878800498080724537E+04    0.770702330522254786E+00   -0.315500184377462801E+03
    0.878800498080724537E+04    0.770702330522254786E+00   -0.315500184377462801E+03
    0.949219105903513628E+04    0.885641173162222572E+00   -0.315494686827178157E+03
    0.104523033353756982E+05    0.880586435359290487E+00   -0.315491634115622844E+03
    0.104523033353756982E+05    0.880586435359290487E+00   -0.315491634115622844E+03
    0.879792541393534157E+04    0.693594798971320370E+00   -0.315490665879330777E+03
    0.117211348172474936E+05    0.717591562406818206E+00   -0.315487797240272471E+03
    0.117211348172474936E+05    0.717591562406818206E+00   -0.315487797240272471E+03
    0.971230784582928754E+04    0.893338418325414274E+00   -0.315487237564234192E+03
    0.971230784582928754E+04    0.893338418325414274E+00   -0.315487237564234192E+03
    0.116724011939082902E+05    0.576287453850992004E+00   -0.315483732623594676E+03
    0.885437029722760235E+04    0.793142784728458228E+00   -0.315480652361674004E+03
    0.885437029722760235E+04    0.793142784728458228E+00   -0.315480652361674004E+03
    0.881622528554897872E+04    0.777643471038804601E+00   -0.315480257466305261E+03
    0.881622528554897872E+04    0.777643471038804601E+00   -0.315480257466305261E+03
    0.968833611944898803E+04    0.890924560919474584E+00   -0.315472880899884728E+03
    0.972150638649805842E+04    0.891674069972176908E+00   -0.315472112018540940E+03
    0.972150638649805842E+04    0.891674069972176908E+00   -0.315472112018540940E+03
    0.118086990737649157E+05    0.602958946193065781E+00   -0.315466992301985897E+03
    0.103605045160857280E+05    0.544950652321195550E+00   -0.315458766379115616E+03
    0.983567185047209750E+04    0.891745493553060653E+00   -0.315457711335996294E+03
    0.983567185047209750E+04    0.891745493553060653E+00   -0.315457711335996294E+03
    0.883251238827210545E+04    0.770511927558822474E+00   -0.315440762158883047E+03
    0.117030294752323407E+05    0.587687562819660059E+00   -0.315437315606059826E+03
    0.114354460939854744E+05    0.765991778773459142E+00   -0.315424621865478116E+03
    0.881590067257010196E+04    0.716719081546480452E+00   -0.315421385554082065E+03
    0.881590067257010196E+04    0.716719081546480452E+00   -0.315421385554082065E+03
    0.932033590095693216E+04    0.862363918656718575E+00   -0.315416232812299086E+03
    0.932033590095693216E+04    0.862363918656718575E+00   -0.315416232812299086E+03
    0.104579142009201350E+05    0.546132826512050196E+00   -0.315416022658220527E+03
    0.116302560994858468E+05    0.724632015991733658E+00   -0.315412847357438352E+03
    0.116302560994858468E+05    0.724632015991733658E+00   -0.315412847357438352E+03
    0.117839951682427745E+05    0.664521018717846412E+00   -0.315389172001824704E+03
    0.907160544235597081E+04    0.638380207923138099E+00   -0.315384126126393255E+03
    0.887751657954188886E+04    0.770312800766132511E+00   -0.315383023117204289E+03
    0.887751657954188886E+04    0.770312800766132511E+00   -0.315383023117204289E+03
    0.114814553646036129E+05    0.750560893838285836E+00   -0.315381791891911917E+03
    0.884219718256407941E+04    0.737097133990326392E+00   -0.315379793380688113E+03
    0.894924597741400248E+04    0.796111377688661026E+00   -0.315379643451742481E+03
    0.894924597741400248E+04    0.796111377688661026E+00   -0.315379643451742481E+03
    0.112304306707074993E+05    0.556609285842547430E+00   -0.315378003885429109E+03
    0.112304306707074993E+05    0.556609285842547430E+00   -0.315378003885429109E+03
    0.884853804516216587E+04    0.718618223404410283E+00   -0.315374241587335860E+03
    0.101418249498102068E+05    0.556293291115134592E+00   -0.315364365713261748E+03
    0.105704591075489916E+05    0.857773018064921677E+00   -0.315364096343458016E+03
    0.105704591075489916E+05    0.857773018064921677E+00   -0.315364096343458016E+03
    0.114292269629249895E+05    0.756770012859403707E+00   -0.315360980152271111E+03
    0.114292269629249895E+05    0.756770012859403707E+00   -0.315360980152271111E+03
    0.117719213349801030E+05    0.642696683488708231E+00   -0.315357780426693921E+03
    0.117719213349801030E+05    0.642696683488708231E+00   -0.315357780426693921E+03
    0.893810840450686192E+04    0.783105457438578068E+00   -0.315346479055450175E+03
    0.931145587374232855E+04    0.609669750779280095E+00   -0.315343143897545929E+03
    0.931145587374232855E+04    0.609669750779280095E+00   -0.315343143897545929E+03
    0.951502045592246213E+04    0.865211933462652238E+00   -0.315334116681628984E+03
    0.911401338894847504E+04    0.638240232611869795E+00   -0.315331265423659147E+03
    0.113789953621462173E+05    0.569101317880429391E+00   -0.315330171192356488E+03
    0.113789953621462173E+05    0.569101317880429391E+00   -0.315330171192356488E+03
    0.114505106260050507E+05    0.574593586256526567E+00   -0.315329005968411593E+03
    0.114505106260050507E+05    0.574593586256526567E+00   -0.315329005968411593E+03
    0.986057440527256222E+04    0.569819953476299546E+00   -0.315327767975259974E+03
    0.117359693816940617E+05    0.634150065244946437E+00   -0.315323250520363104E+03
    0.112617048939697124E+05    0.563141608003711269E+00   -0.315322786069451524E+03
    0.967169671827097045E+04    0.580910916089289464E+00   -0.315321736102356681E+03
    0.889180809993799085E+04    0.738939838904632773E+00   -0.315315639954402116E+03
    0.889180809993799085E+04    0.738939838904632773E+00   -0.315315639954402116E+03
    0.943831247550897388E+04    0.857233746826676524E+00   -0.315314286979482631E+03
    0.943831247550897388E+04    0.857233746826676524E+00   -0.315314286979482631E+03
    0.974713933667839410E+04    0.577237208928806478E+00   -0.315309506582196946E+03
    0.974713933667839410E+04    0.577237208928806478E+00   -0.315309506582196946E+03
    0.111040403488057764E+05    0.797758692613656839E+00   -0.315303092677280063E+03
    0.903543270977126485E+04    0.798225759211657393E+00   -0.315295594573382971E+03
    0.893032915990166293E+04    0.698168027229779109E+00   -0.315294110734921105E+03
    0.102855931616443831E+05    0.557547163066345997E+00   -0.315291153186960116E+03
    0.112649565484661125E+05    0.772831804648000720E+00   -0.315289434874638687E+03
    0.918605988896950112E+04    0.825513501947745532E+00   -0.315286907181223796E+03
    0.918605988896950112E+04    0.825513501947745532E+00   -0.315286907181223796E+03
    0.109205210370993700E+05    0.555807563231760393E+00   -0.315284258838119626E+03
    0.900618253937081681E+04    0.787058151275204732E+00   -0.315283950490198663E+03
    0.930927145076098532E+04    0.616705526174930241E+00   -0.315278527176038779E+03
    0.892977181017788826E+04    0.707350844424749714E+00   -0.315278375576686869E+03
    0.892977181017788826E+04    0.707350844424749714E+00   -0.315278375576686869E+03
    0.897957573366333781E+04    0.776236752379816264E+00   -0.315278319826699430E+03
    0.897957573366333781E+04    0.776236752379816264E+00   -0.315278319826699430E+03
    0.105784532926337815E+05    0.555041306681420932E+00   -0.315269788161776603E+03
    0.105784532926337815E+05    0.555041306681420932E+00   -0.315269788161776603E+03
    0.953348110892583463E+04    0.595341919274324227E+00   -0.315269749381549616E+03
    0.894887230751546485E+04    0.698875872182357250E+00   -0.315268418655237156E+03
    0.107901209354225575E+05    0.555466596079437269E+00   -0.315267910743026789E+03
    0.108977334881999504E+05    0.815265259438601508E+00   -0.315255018377412966E+03
    0.915476109950369391E+04    0.642603578870897585E+00   -0.315251411916684390E+03
    0.915476109950369391E+04    0.642603578870897585E+00   -0.315251411916684390E+03
    0.897820089435786940E+04    0.761982587261753608E+00   -0.315243617637556554E+03
    0.897820089435786940E+04    0.761982587261753608E+00   -0.315243617637556554E+03
    0.950420150686884699E+04    0.600295189586378286E+00   -0.315243009485905986E+03
    0.950420150686884699E+04    0.600295189586378286E+00   -0.315243009485905986E+03
    0.910704144255573192E+04    0.799999070881780017E+00   -0.315232800441766415E+03
    0.115178246601658248E+05    0.596788961690485009E+00   -0.315232328389554084E+03
    0.114723192342623624E+05    0.722243183695489011E+00   -0.315225838271120267E+03
    0.114723192342623624E+05    0.722243183695489011E+00   -0.315225838271120267E+03
    0.112792312134628064E+05    0.758763076394117997E+00   -0.315217987192244266E+03
    0.110949458084587113E+05    0.566459895263779267E+00   -0.315215400004855212E+03
    0.110949458084587113E+05    0.566459895263779267E+00   -0.315215400004855212E+03
    0.109521709150436291E+05    0.803609576325780561E+00   -0.315214694792248736E+03
    0.116345988012073431E+05    0.649009596463595240E+00   -0.315213622167127085E+03
    0.114643872504524134E+05    0.593487260128323202E+00   -0.315209394997919617E+03
    0.100576193565302565E+05    0.859545450790333732E+00   -0.315208549255939658E+03
    0.100576193565302565E+05    0.859545450790333732E+00   -0.315208549255939658E+03
    0.109580742582329458E+05    0.563493698175310587E+00   -0.315202794598456364E+03
    0.101560922877566391E+05    0.567551082752763447E+00   -0.315200719982130579E+03
    0.989834480795326090E+04    0.578197571975174962E+00   -0.315194394420313586E+03
    0.115045840570843120E+05    0.603056380990746765E+00   -0.315191531987964311E+03
    0.927308505404120660E+04    0.819549936185775429E+00   -0.315187799805610325E+03
    0.114079955723828134E+05    0.591574690790858893E+00   -0.315180216069270443E+03
    0.115218708808070878E+05    0.612468365706099305E+00   -0.315168123138419787E+03
    0.105021406194987048E+05    0.563431548513442459E+00   -0.315166437793834575E+03
    0.921905879479516807E+04    0.644604119464386116E+00   -0.315164396372695478E+03
    0.910669875402819343E+04    0.780655609084674462E+00   -0.315159652570237768E+03
    0.113315116834070050E+05    0.587130456542382051E+00   -0.315158511986470899E+03
    0.915216285659100686E+04    0.790249996991200465E+00   -0.315151742231876881E+03
    0.954869234891016822E+04    0.840151940347808823E+00   -0.315150904093414795E+03
    0.994477900413281350E+04    0.851863996998891704E+00   -0.315146918374540689E+03
    0.101360170857458797E+05    0.849160229068646633E+00   -0.315141720591579485E+03
    0.101360170857458797E+05    0.849160229068646633E+00   -0.315141720591579485E+03
    0.115079787007262366E+05    0.617628900661219671E+00   -0.315139793090310832E+03
    0.115079787007262366E+05    0.617628900661219671E+00   -0.315139793090310832E+03
    0.903545952934745401E+04    0.730882338882430704E+00   -0.315138105556829714E+03
    0.928349898391660099E+04    0.808542797229704568E+00   -0.315124369457539444E+03
    0.102172412333784287E+05    0.843817190912208637E+00   -0.315118627690213600E+03
    0.914376762985653113E+04    0.670557044667112079E+00   -0.315116693635019374E+03
    0.109657963831056823E+05    0.572085288287160876E+00   -0.315114628245925644E+03
    0.906642544718762110E+04    0.743217051273238560E+00   -0.315113994231052004E+03
    0.906642544718762110E+04    0.743217051273238560E+00   -0.315113994231052004E+03
    0.113802043692483840E+05    0.717160835316747236E+00   -0.315110613606247568E+03
    0.909251946315624809E+04    0.757225033783528123E+00   -0.315109910707771689E+03
    0.913487845796303918E+04    0.675373046281485867E+00   -0.315108586546014976E+03
    0.112935576048883577E+05    0.735345242980300018E+00   -0.315107456199413150E+03
    0.101762299540624008E+05    0.843229454658633082E+00   -0.315105739843052334E+03
    0.111169122108921292E+05    0.764844801004282315E+00   -0.315103612871334519E+03
    0.110006693351255526E+05    0.780923934594790259E+00   -0.315103503737545793E+03
    0.110006693351255526E+05    0.780923934594790259E+00   -0.315103503737545793E+03
    0.115019684398819954E+05    0.632036930587189905E+00   -0.315101289714974030E+03
    0.907268917041331952E+04    0.714739256499146047E+00   -0.315097940187560539E+03
    0.907816165428846762E+04    0.737612644598762857E+00   -0.315095448203297167E+03
    0.958166317476679797E+04    0.608674732233174365E+00   -0.315091576364268860E+03
    0.958166317476679797E+04    0.608674732233174365E+00   -0.315091576364268860E+03
    0.110927880980038535E+05    0.579645167497814251E+00   -0.315090889265892883E+03
    0.923716267045178029E+04    0.792933457751955562E+00   -0.315089909235926768E+03
    0.113660720340314092E+05    0.603505079949873124E+00   -0.315085877868836974E+03
    0.114732503711002300E+05    0.628138103628391176E+00   -0.315083914908727877E+03
    0.104027741510433934E+05    0.830213400595934736E+00   -0.315077308363076270E+03
    0.102012562311312468E+05    0.838114742227705101E+00   -0.315074215473538061E+03
    0.102012562311312468E+05    0.838114742227705101E+00   -0.315074215473538061E+03
    0.107735248321629952E+05    0.571993685990926926E+00   -0.315072744621146683E+03
    0.108973231327637532E+05    0.786769780065294411E+00   -0.315061138765864030E+03
    0.921716165518415983E+04    0.780055808128320427E+00   -0.315057490533719999E+03
    0.915192781449472750E+04    0.758424330592716633E+00   -0.315053903936818642E+03
    0.922480086604350618E+04    0.664356599397240233E+00   -0.315053570496482621E+03
    0.930840219146539130E+04    0.796399174087628947E+00   -0.315050195361180783E+03
    0.107879487187464529E+05    0.796656984859698492E+00   -0.315048759167956803E+03
    0.102188906395144895E+05    0.833856916478260102E+00   -0.315048066124844809E+03
    0.114590351305344884E+05    0.646937222092591857E+00   -0.315047840399090774E+03
    0.943951453239827242E+04    0.628946967182053340E+00   -0.315047057527489699E+03
    0.114475452829423411E+05    0.670046544778860609E+00   -0.315046967584723632E+03
    0.933424032619389982E+04    0.798580590655717737E+00   -0.315041591681096463E+03
    0.912334495639262059E+04    0.724468485055605460E+00   -0.315040766362544048E+03
    0.972369549175303837E+04    0.831834208486529447E+00   -0.315040249005138435E+03
    0.917235176083718034E+04    0.684419962642742519E+00   -0.315038754707559804E+03
    0.104172088151700173E+05    0.823672970633019030E+00   -0.315037041018571756E+03
    0.111251393387859589E+05    0.751165849657866258E+00   -0.315035294657729196E+03
    0.111251393387859589E+05    0.751165849657866258E+00   -0.315035294657729196E+03
    0.989022958104531790E+04    0.834890196931032835E+00   -0.315032339414171190E+03
    0.114235344374887882E+05    0.674951558585411782E+00   -0.315031675966573857E+03
    0.102823729094399405E+05    0.829131867370391351E+00   -0.315030805752353729E+03
    0.102823729094399405E+05    0.829131867370391351E+00   -0.315030805752353729E+03
    0.936926428841518828E+04    0.641510345996491815E+00   -0.315027907288273866E+03
    0.922256787344260920E+04    0.771758693406857210E+00   -0.315025708592689455E+03
    0.925829284003780049E+04    0.663589784524434068E+00   -0.315021969696545113E+03
    0.925829284003780049E+04    0.663589784524434068E+00   -0.315021969696545113E+03
    0.109198342132026519E+05    0.777178675407931507E+00   -0.315018711057135647E+03
    0.107271756252677733E+05    0.796620602160636682E+00   -0.315010235565852270E+03
    0.107271756252677733E+05    0.796620602160636682E+00   -0.315010235565852270E+03
    0.108105753666956571E+05    0.578987942309774795E+00   -0.315009242476604868E+03
    0.982147585424305362E+04    0.599629131955545791E+00   -0.315004815771267715E+03
    0.982147585424305362E+04    0.599629131955545791E+00   -0.315004815771267715E+03
    0.965064935663048163E+04    0.821709596595460168E+00   -0.314999987849244690E+03
    0.926840379021433728E+04    0.774900170933947363E+00   -0.314997881075197597E+03
    0.101669613266258457E+05    0.584306706765025607E+00   -0.314997380717222143E+03
    0.944949177519498699E+04    0.803188759530424568E+00   -0.314990789548922692E+03
    0.101539343468872103E+05    0.826706408307766538E+00   -0.314987262943419069E+03
    0.990592861473130142E+04    0.596642059630726140E+00   -0.314985161685084961E+03
    0.998136212973997135E+04    0.593189069919288214E+00   -0.314980960012955052E+03
    0.105681513538681302E+05    0.580120127330210122E+00   -0.314974083746641043E+03
    0.107264183837131095E+05    0.790771016262658999E+00   -0.314972913719589201E+03
    0.960238204144582051E+04    0.813502292773508939E+00   -0.314971016469327083E+03
    0.101247981717984439E+05    0.824529939386902000E+00   -0.314968884692204199E+03
    0.943540467149080177E+04    0.795977193185310350E+00   -0.314965023660443990E+03
    0.112560551070221136E+05    0.708143543511350559E+00   -0.314962968061272079E+03
    0.108267255911775628E+05    0.778474510725108870E+00   -0.314961640941030851E+03
    0.921323348843184976E+04    0.734583150166181698E+00   -0.314957759609744983E+03
    0.968469671071447556E+04    0.816165746003408299E+00   -0.314957057169512439E+03
    0.103210542369361192E+05    0.816434131704529054E+00   -0.314956228018455874E+03
    0.107552129920374518E+05    0.785029927547046258E+00   -0.314955221851689657E+03
    0.112719522215167253E+05    0.619501831095584543E+00   -0.314955119315616798E+03
    0.108236701801947984E+05    0.585555144084729084E+00   -0.314952865804792907E+03
    0.113469220986925247E+05    0.664331431789613291E+00   -0.314952612902793703E+03
    0.998307445826247931E+04    0.822885592134144028E+00   -0.314950359127538150E+03
    0.110837459697621980E+05    0.740471067413012607E+00   -0.314948341871456591E+03
    0.110508807616981576E+05    0.744966824233738278E+00   -0.314943666959484631E+03
    0.109948299477529290E+05    0.593858410884308130E+00   -0.314940949869373242E+03
    0.934920072356477249E+04    0.775201308319884097E+00   -0.314937922277449502E+03
    0.981648676092595815E+04    0.818017348445895354E+00   -0.314936005542438807E+03
    0.948064006432635870E+04    0.641194914020643991E+00   -0.314929300782984512E+03
    0.936333984055939436E+04    0.775139402704717706E+00   -0.314927757461902388E+03
    0.925100007345949962E+04    0.735952470565694350E+00   -0.314925002206447004E+03
    0.931058351582159958E+04    0.761097574934536114E+00   -0.314923496036535255E+03
    0.102954856005717556E+05    0.588125178569268492E+00   -0.314922956984068378E+03
    0.947070133175986120E+04    0.790357883691156560E+00   -0.314919793798210833E+03
    0.959601763677236704E+04    0.802608666681779992E+00   -0.314916236062314510E+03
    0.955522180819340792E+04    0.634076453963656306E+00   -0.314912845861286655E+03
    0.950472297350329427E+04    0.792512438257131246E+00   -0.314910876964360227E+03
    0.103046607839734115E+05    0.589575264812070343E+00   -0.314906992488178389E+03
    0.112470228242396370E+05    0.690476061472787839E+00   -0.314906672219925440E+03
    0.103311750470026182E+05    0.589201334700526047E+00   -0.314905612744683310E+03
    0.110102485689171754E+05    0.743328178240498461E+00   -0.314904867447320328E+03
    0.955477395871367480E+04    0.635406386645500199E+00   -0.314904635171159896E+03
    0.955901015239692788E+04    0.796578477888911674E+00   -0.314902943239764397E+03
    0.105165742610934358E+05    0.587619869671788253E+00   -0.314902334326500181E+03
    0.111564445425863632E+05    0.714395016948915162E+00   -0.314900644047035144E+03
    0.112079396900561842E+05    0.623353510317415371E+00   -0.314900387697710812E+03
    0.927341050382315552E+04    0.706240532562227408E+00   -0.314899912155222410E+03
    0.110629158430733751E+05    0.605124017103785272E+00   -0.314899595563549212E+03
    0.112231895126996515E+05    0.694283608149527498E+00   -0.314895864959365497E+03
    0.984113062764907772E+04    0.810884985769430133E+00   -0.314890344147343740E+03
    0.105220459445701163E+05    0.794087439511157567E+00   -0.314888131764101274E+03
    0.111388795281648217E+05    0.714831149388540199E+00   -0.314888106016518066E+03
    0.105887530068554570E+05    0.788642678166764699E+00   -0.314885983852609115E+03
    0.946227669243210039E+04    0.779995205506686995E+00   -0.314882156232236127E+03
    0.112360449674731044E+05    0.681544290218641935E+00   -0.314880836173113039E+03
    0.946876633909913471E+04    0.652951420093526247E+00   -0.314875856092597189E+03
    0.109196348841348718E+05    0.749793708009015902E+00   -0.314870533917360547E+03
    0.964171789560272191E+04    0.796843411913343402E+00   -0.314869577226643173E+03
    0.100468277029480578E+05    0.602173280766955421E+00   -0.314867479243764194E+03
    0.950446093437029776E+04    0.781968949662899426E+00   -0.314866220645641647E+03
    0.108519884211292920E+05    0.757549248890369786E+00   -0.314863664796782814E+03
    0.954714072851822493E+04    0.786453439948923805E+00   -0.314862906273460908E+03
    0.106164264826910385E+05    0.592793900521547124E+00   -0.314860019891666241E+03
    0.936711404344189395E+04    0.752490268388278372E+00   -0.314859680475602147E+03
    0.101089468388264995E+05    0.806764304505578789E+00   -0.314856377537371600E+03
    0.107765246280769043E+05    0.765176680193262460E+00   -0.314856013669985487E+03
    0.100368241776985215E+05    0.603952382342576866E+00   -0.314855996825912143E+03
    0.112157416011044807E+05    0.660251717166458807E+00   -0.314848079219849751E+03
    0.104011897819921523E+05    0.794521386398464480E+00   -0.314844862878636548E+03
    0.946828860166370941E+04    0.769832278668076575E+00   -0.314841907657434206E+03
    0.108041537489578332E+05    0.759141375015574438E+00   -0.314841645152869205E+03
    0.105601464047496447E+05    0.782327572748044653E+00   -0.314836318869923332E+03
    0.111776526095497229E+05    0.680286615586656707E+00   -0.314833779598469562E+03
    0.111736829806629230E+05    0.641757923663213714E+00   -0.314833681959820922E+03
    0.960540711332326464E+04    0.707447062520324854E+00   -0.314653867921593189E+03
    0.108402453542092317E+05    0.714210102074600228E+00   -0.314684138537485978E+03
    0.103885986779622235E+05    0.664100886468072971E+00   -0.314504666021728440E+03
    0.100313014691235367E+05    0.740741230268253781E+00   -0.314562265568469229E+03
    0.106637674955506100E+05    0.711189066136896253E+00   -0.314591095009781384E+03
    0.101824767731874690E+05    0.657322271507305267E+00   -0.314524718485088385E+03
    0.101824767731874690E+05    0.657322271507305267E+00   -0.314524718485088385E+03
    0.956725717908529077E+04    0.740949269773391705E+00   -0.314707992216912430E+03
    0.985552476146509798E+04    0.695983453101984839E+00   -0.314542778966819071E+03
    0.101921056022759258E+05    0.683071101030043093E+00   -0.314481959778296414E+03
    0.101921056022759258E+05    0.683071101030043093E+00   -0.314481959778296414E+03
    0.967181008113441385E+04    0.654028684264840288E+00   -0.314724246518543566E+03
    0.985181344007048028E+04    0.752837679919884151E+00   -0.314627696827124794E+03
    0.109667591535250740E+05    0.698574048718074714E+00   -0.314720457931554677E+03
    0.954280616267102232E+04    0.714864273774951431E+00   -0.314691751055144607E+03
    0.106566089629405105E+05    0.678341116616638540E+00   -0.314548406518048353E+03
    0.106566089629405105E+05    0.678341116616638540E+00   -0.314548406518048353E+03
    0.971489647272761613E+04    0.767071293797843223E+00   -0.314716097542441958E+03
    0.105323078117136956E+05    0.760553278976763281E+00   -0.314712612401247327E+03
    0.109807259413852316E+05    0.693948265959868471E+00   -0.314720011919552860E+03
    0.988223894781988929E+04    0.632608045680887798E+00   -0.314717512002349338E+03
    0.977025831040884441E+04    0.718156558525567035E+00   -0.314580616818831743E+03
    0.957328689548736293E+04    0.696865816063242827E+00   -0.314678039209030942E+03
    0.995629884293556279E+04    0.624947118589469053E+00   -0.314731639901002211E+03
    0.989254988352988585E+04    0.635613717365910658E+00   -0.314695827317886710E+03
    0.987200822933151903E+04    0.660106514868348371E+00   -0.314598980527697393E+03
    0.109327153960976411E+05    0.623581785553328660E+00   -0.314753806375644899E+03
    0.108739037388200504E+05    0.690652149612336785E+00   -0.314652370780733179E+03
    0.104342712731913653E+05    0.692751727398435158E+00   -0.314496675978574274E+03
    0.104164239946283888E+05    0.643417334352041959E+00   -0.314557992612412306E+03
    0.981816510506361374E+04    0.782652487306530587E+00   -0.314750055770334654E+03
    0.969007660885952282E+04    0.638794072637439148E+00   -0.314788092129903703E+03
    0.106079979443011252E+05    0.665022480801021554E+00   -0.314540343339606068E+03
    0.109055290651467931E+05    0.652473671209526374E+00   -0.314665625831080945E+03
    0.101713632618560769E+05    0.682793415235543599E+00   -0.314483541228191996E+03
    0.103159888935545951E+05    0.790136296167057828E+00   -0.314795305691983572E+03
    0.100788685442449914E+05    0.778907631286911983E+00   -0.314705905866795206E+03
    0.104536795078094528E+05    0.671617257227813069E+00   -0.314502315065310029E+03
    0.978266343616925406E+04    0.668068745779554884E+00   -0.314614894624987585E+03
    0.105508537339697577E+05    0.711651010024319963E+00   -0.314551270640619464E+03
    0.105508537339697577E+05    0.711651010024319963E+00   -0.314551270640619464E+03
    0.107630143438641135E+05    0.634343492999393965E+00   -0.314651832718803860E+03
    0.991599436598499233E+04    0.635320525164177030E+00   -0.314687146814472896E+03
    0.104521843700392237E+05    0.734319447713389084E+00   -0.314582514811112617E+03
    0.108601083343748960E+05    0.715057840239704423E+00   -0.314697821326786766E+03
    0.106995146841707538E+05    0.725381975749115449E+00   -0.314645576040946878E+03
    0.980971693781010981E+04    0.662398900773466970E+00   -0.314618833156589801E+03
    0.107443075473372082E+05    0.642006383405430703E+00   -0.314622758974696694E+03
    0.963680381608079006E+04    0.735149203082669622E+00   -0.314661528682630149E+03
    0.110657116571277056E+05    0.665227057425517465E+00   -0.314745749813055511E+03
    0.110433258025081377E+05    0.644816916875055046E+00   -0.314749001286427927E+03
    0.102178007577154731E+05    0.732312813242792071E+00   -0.314536845950065015E+03
    0.102999407443627078E+05    0.636931515577895513E+00   -0.314584284889690025E+03
    0.102999407443627078E+05    0.636931515577895513E+00   -0.314584284889690025E+03
    0.108699198006510578E+05    0.663926360176209873E+00   -0.314637850966306360E+03
    0.971014043351355576E+04    0.697902764620173088E+00   -0.314601876201233949E+03
    0.108936248129289943E+05    0.737672057262302894E+00   -0.314798696078359683E+03
    0.100483474156531829E+05    0.741326753152164786E+00   -0.314562515449855312E+03
    0.100727613740556462E+05    0.637829341039111153E+00   -0.314619326213551915E+03
    0.948400259434623331E+04    0.725304580099187413E+00   -0.314735345584679237E+03
    0.972569658515318588E+04    0.781682204539051351E+00   -0.314770714512285451E+03
    0.959150121007618873E+04    0.656758311655762594E+00   -0.314765418209314532E+03
    0.101657965130946486E+05    0.766688045157876363E+00   -0.314654434784143064E+03
    0.940344293539714454E+04    0.725285182348913371E+00   -0.314791553610481628E+03
    0.103466004693931154E+05    0.667055933423275405E+00   -0.314497579592332045E+03
    0.103466004693931154E+05    0.667055933423275405E+00   -0.314497579592332045E+03
    0.108499344513167762E+05    0.642379016450362106E+00   -0.314660108387468256E+03
    0.108499344513167762E+05    0.642379016450362106E+00   -0.314660108387468256E+03
    0.108678780248348594E+05    0.661276724351491096E+00   -0.314638584349415225E+03
    0.969172019766544690E+04    0.634529334841850257E+00   -0.314812148189050959E+03
    0.105947301945017698E+05    0.648686763932556976E+00   -0.314565765894940171E+03
    0.105947301945017698E+05    0.648686763932556976E+00   -0.314565765894940171E+03
    0.100737834892154478E+05    0.666621913329669469E+00   -0.314519926283596931E+03
    0.979266776209097588E+04    0.685395754366094567E+00   -0.314575775398421797E+03
    0.104153752092356917E+05    0.676209217285321906E+00   -0.314493659536908126E+03
    0.103344979067890763E+05    0.653744176449436942E+00   -0.314524865434426488E+03
    0.971557172940896817E+04    0.731822536462928053E+00   -0.314620632667552513E+03
    0.100468752932881471E+05    0.760571066235536719E+00   -0.314627334807704472E+03
    0.987516960345552434E+04    0.710182727148645609E+00   -0.314538609939538560E+03
    0.966596125900013794E+04    0.690994131654867783E+00   -0.314630224337007576E+03
    0.108328486979135851E+05    0.637987031341582300E+00   -0.314664859642036902E+03
    0.100403086922048351E+05    0.715432420914682510E+00   -0.314508712935835035E+03
    0.101772789304098696E+05    0.761724731704357838E+00   -0.314634340290600733E+03
    0.108898628031288717E+05    0.694665885182462750E+00   -0.314667387886061022E+03
    0.945559810788441428E+04    0.685084337631714169E+00   -0.314777024247732811E+03
    0.103840490411004412E+05    0.781143422368167029E+00   -0.314764747068819361E+03
    0.108347323663135630E+05    0.660513204482050864E+00   -0.314624229680328426E+03
    0.976490138892432515E+04    0.764949949090761194E+00   -0.314692102194042263E+03
    0.966367049558242798E+04    0.683049471116288331E+00   -0.314642991790975202E+03
    0.960698534125981496E+04    0.669280696493892657E+00   -0.314710032606968923E+03
    0.106167933487771079E+05    0.747666101530536809E+00   -0.314690495092760273E+03
    0.101067855132166678E+05    0.762861527641126580E+00   -0.314635621916754133E+03
    0.107374331297550452E+05    0.613421993951971278E+00   -0.314737344047069257E+03
    0.104866856662813389E+05    0.772436193303481566E+00   -0.314753347507420472E+03
    0.100366633635353610E+05    0.734336886477816808E+00   -0.314544955450857515E+03
    0.100366633635353610E+05    0.734336886477816808E+00   -0.314544955450857515E+03
    0.978252640272355166E+04    0.731788801198155703E+00   -0.314595346302773123E+03
    0.107713384301855967E+05    0.652246499467668106E+00   -0.314609484997682273E+03
    0.949691740129255959E+04    0.675218231903345845E+00   -0.314769529941643498E+03
    0.102269264857342550E+05    0.647763029311451022E+00   -0.314548924147022603E+03
    0.102269264857342550E+05    0.647763029311451022E+00   -0.314548924147022603E+03
    0.102292200290720411E+05    0.662710478413139126E+00   -0.314507082043817547E+03
    0.989514623952035618E+04    0.732798452342463325E+00   -0.314564834555860557E+03
    0.105490117960677126E+05    0.715990762802734770E+00   -0.314560323090597990E+03
    0.109589951734234328E+05    0.652435653611816657E+00   -0.314692199229319783E+03
    0.948604065174730931E+04    0.690214946569018717E+00   -0.314744978839915177E+03
    0.958484953402270548E+04    0.782052722751982898E+00   -0.314826600302290103E+03
    0.959932069150477037E+04    0.716819969092661990E+00   -0.314659531761457401E+03
    0.104214262800338674E+05    0.660114559220721708E+00   -0.314514435272123251E+03
    0.997402357167203081E+04    0.624109750432437660E+00   -0.314729777098904833E+03
    0.996072613455740247E+04    0.796524399309390230E+00   -0.314797567847296079E+03
    0.108726981230618749E+05    0.660078603065820779E+00   -0.314641778373918214E+03
    0.107044987529161335E+05    0.734551445125267932E+00   -0.314679395925579627E+03
    0.105008374276775849E+05    0.742219036273846333E+00   -0.314624526323894486E+03
    0.957015685606133047E+04    0.667172810134803451E+00   -0.314741318996237453E+03
    0.997003680998830350E+04    0.761880706922513862E+00   -0.314638260877260336E+03
    0.100981518946153446E+05    0.759604913530665615E+00   -0.314622595266738585E+03
    0.105889394809785099E+05    0.777501523834685071E+00   -0.314822609250964717E+03
    0.102698487700761889E+05    0.751913938082829358E+00   -0.314605881122200969E+03
    0.107077989255476659E+05    0.757120590558557294E+00   -0.314776861118098793E+03
    0.972225047135145360E+04    0.709572576595247195E+00   -0.314594981401419091E+03
    0.972225047135145360E+04    0.709572576595247195E+00   -0.314594981401419091E+03
    0.106209007352205390E+05    0.771307505892645073E+00   -0.314804397429560765E+03
    0.101029790039059189E+05    0.734063733129836637E+00   -0.314539823468545706E+03
    0.106788141525343945E+05    0.638965117242563108E+00   -0.314612720118339610E+03
    0.107204132681816518E+05    0.626255720378668501E+00   -0.314670346184881510E+03
    0.102621263452665262E+05    0.675408352715541449E+00   -0.314485719683527805E+03
    0.107044110954756252E+05    0.752058399379782916E+00   -0.314751471194708301E+03
    0.109053211031922438E+05    0.673864918389165179E+00   -0.314654454242659767E+03
    0.105921855943072605E+05    0.630644999294039055E+00   -0.314624736512032143E+03
    0.101682767969665329E+05    0.610678047865715112E+00   -0.314758858818150543E+03
    0.943143824115467942E+04    0.689938505434426586E+00   -0.314786570609130024E+03
    0.109074745344345047E+05    0.682452958439209501E+00   -0.314660926253475679E+03
    0.948698738292525923E+04    0.742209233259503054E+00   -0.314757139338070260E+03
    0.990234321138163614E+04    0.704826851645793728E+00   -0.314528087638953650E+03
    0.103462731576645419E+05    0.744659312049654076E+00   -0.314592398223302553E+03
    0.104583354025897115E+05    0.730566187600071193E+00   -0.314572521647827159E+03
    0.986031863049183085E+04    0.631923024227293628E+00   -0.314732023019743224E+03
    0.941180875047699010E+04    0.689956163947713752E+00   -0.314802093221150528E+03
    0.998253485631651165E+04    0.645823023620588521E+00   -0.314610853854849154E+03
    0.946404873269239579E+04    0.757454122393168117E+00   -0.314806758403208391E+03
    0.104519219121601018E+05    0.703573467574825195E+00   -0.314511029507496914E+03
    0.103359312938781222E+05    0.761796448037580620E+00   -0.314658432734495193E+03
    0.102258129447830470E+05    0.798494980809875798E+00   -0.314823490717699428E+03
    0.103606424959744108E+05    0.737763757942588971E+00   -0.314571868349873569E+03
    0.103606424959744108E+05    0.737763757942588971E+00   -0.314571868349873569E+03
    0.983883707954860802E+04    0.712200597813658520E+00   -0.314551305469616295E+03
    0.983883707954860802E+04    0.712200597813658520E+00   -0.314551305469616295E+03
    0.101427444720376643E+05    0.705396419646858397E+00   -0.314488190985069139E+03
    0.101427444720376643E+05    0.705396419646858397E+00   -0.314488190985069139E+03
    0.108337326710014077E+05    0.647319707009936907E+00   -0.314642712913646506E+03
    0.965942909348251487E+04    0.779758182822277490E+00   -0.314785764398028846E+03
    0.102819150686296362E+05    0.655584642962626529E+00   -0.314521061757573079E+03
    0.947612059767772917E+04    0.740463637215449610E+00   -0.314760745445516022E+03
    0.100428079467221505E+05    0.749272784528461577E+00   -0.314587277892048121E+03
    0.103312919471333917E+05    0.748463505011961572E+00   -0.314603317910442740E+03
    0.994050016434968711E+04    0.645343884888732622E+00   -0.314627998305849474E+03
    0.101045976155550870E+05    0.798149320638676496E+00   -0.314806525127221562E+03
    0.104667349611028949E+05    0.709127872666118764E+00   -0.314523140255230146E+03
    0.106721323651739422E+05    0.636612398600868157E+00   -0.314618693311426057E+03
    0.109297281848231087E+05    0.695583541431365915E+00   -0.314691941757567349E+03
    0.964051223755046340E+04    0.668004356100233121E+00   -0.314692716532028498E+03
    0.987373228171600931E+04    0.650951906731829344E+00   -0.314631341254756023E+03
    0.104969097550824954E+05    0.732525419020569668E+00   -0.314589804193906048E+03
    0.109118350795901224E+05    0.632444171982047831E+00   -0.314713450347219009E+03
    0.985587586842639030E+04    0.705884949360508385E+00   -0.314542474075420557E+03
    0.980450606095622425E+04    0.679756101600725415E+00   -0.314579179635391370E+03
    0.102364452174289745E+05    0.798983880522124212E+00   -0.314828272277890392E+03
    0.108925721703550462E+05    0.671811413396184109E+00   -0.314647413236324269E+03
    0.104590539814129133E+05    0.659624109585299268E+00   -0.314519408319025274E+03
    0.959662930776993926E+04    0.684358516514279591E+00   -0.314680340617032527E+03
    0.102891610580451816E+05    0.714781947754866476E+00   -0.314503525860558454E+03
    0.102891610580451816E+05    0.714781947754866476E+00   -0.314503525860558454E+03
    0.975523272123132847E+04    0.731025732206359469E+00   -0.314603755665295239E+03
    0.105594932810398113E+05    0.766062748018873085E+00   -0.314750014580994559E+03
    0.105909868143253989E+05    0.628587759633103760E+00   -0.314633306857521404E+03
    0.106450379373064679E+05    0.650075814198808999E+00   -0.314574326117631813E+03
    0.983130503357895759E+04    0.789901106655671259E+00   -0.314781218171929424E+03
    0.106138901996828154E+05    0.701779837988790289E+00   -0.314553917036028167E+03
    0.105878466148494554E+05    0.765678715622486572E+00   -0.314760338190551124E+03
    0.984124720670013812E+04    0.665954826610450579E+00   -0.314594330300650654E+03
    0.986037659255208928E+04    0.731158968935482156E+00   -0.314570270949883422E+03
    0.955525467311941429E+04    0.679660531006545221E+00   -0.314716823298425766E+03
    0.965682606321166713E+04    0.782404857973812651E+00   -0.314797883186859792E+03
    0.964922916064841775E+04    0.640986713296920807E+00   -0.314802579972207127E+03
    0.984107219699539746E+04    0.620891746323327332E+00   -0.314814174384451462E+03
    0.103514470276427219E+05    0.739076396018882753E+00   -0.314574318946585436E+03
    0.104528393405565093E+05    0.669620449726193945E+00   -0.314504130809346805E+03
    0.105241229041612551E+05    0.647590657204528464E+00   -0.314555837729209372E+03
    0.104625444650797417E+05    0.685690433813831990E+00   -0.314498931943230957E+03
    0.102850923563354772E+05    0.652003647283515675E+00   -0.314530855971900223E+03
    0.963270915328758383E+04    0.697653743232697909E+00   -0.314642332129575948E+03
    0.990802549097195151E+04    0.716584632318456261E+00   -0.314535348626703922E+03
    0.990802549097195151E+04    0.716584632318456261E+00   -0.314535348626703922E+03
    0.102841268433605073E+05    0.793762305472422658E+00   -0.314808180882378508E+03
    0.101740371287958551E+05    0.679517329651558644E+00   -0.314485901803138574E+03
    0.101740371287958551E+05    0.679517329651558644E+00   -0.314485901803138574E+03
    0.104685386095550330E+05    0.707837064164265950E+00   -0.314521336564594492E+03
    0.105418514005336710E+05    0.737725701899543229E+00   -0.314622284882588019E+03
    0.984134328365815418E+04    0.643623493901558041E+00   -0.314678398047652195E+03
    0.983593992113777313E+04    0.795965052660511874E+00   -0.314810521369696573E+03
    0.102565951157132022E+05    0.655261174154086912E+00   -0.314523257085748810E+03
    0.108914528415954483E+05    0.700407582680708352E+00   -0.314679191820018843E+03
    0.105245972026366762E+05    0.622325248237023843E+00   -0.314655108379328226E+03
    0.100519042016361909E+05    0.762827756201336471E+00   -0.314635963976757409E+03
    0.103870797444099589E+05    0.659818926464825761E+00   -0.314512373158877153E+03
    0.106708918307549557E+05    0.652005743806062243E+00   -0.314577262494998422E+03
    0.106708918307549557E+05    0.652005743806062243E+00   -0.314577262494998422E+03
    0.981403469411987317E+04    0.795916544905637680E+00   -0.314814608925511095E+03
    0.101676002577280506E+05    0.722310545812800964E+00   -0.314511898575342570E+03
    0.101676002577280506E+05    0.722310545812800964E+00   -0.314511898575342570E+03
    0.971298224466088868E+04    0.658288685044751909E+00   -0.314682829040046840E+03
    0.102295085199846399E+05    0.799960581266417448E+00   -0.314832655668690393E+03
    0.100816524714548796E+05    0.667786310554736251E+00   -0.314515907239645117E+03
    0.966484513595457429E+04    0.783851183192739276E+00   -0.314801069003512737E+03
    0.102250076748870724E+05    0.650681408499060754E+00   -0.314539424996785385E+03
    0.103995026061487679E+05    0.688512491235140356E+00   -0.314489365294928120E+03
